3281 100
dveloppement -0.41976342 0.13443217 0.43712893 0.509291 -0.70987856 -0.43338308 0.5056058 1.2668189 -0.71306247 -0.7077636 0.4051887 0.50092596 -0.86875844 -0.23317647 -0.67470187 0.047497638 0.6533126 -0.2792164 -0.11255324 -0.57322294 -0.36822978 0.26963666 -0.05620312 0.03789136 0.8139258 0.4932549 -0.18316524 0.44677657 -0.2314678 -0.4031907 -0.26698023 0.05829562 1.113043 -0.59567034 -0.17114958 -0.5054098 0.36716083 -0.5538446 -0.2078424 -1.0986906 -0.16070054 -0.41942093 -1.023866 -0.67340904 0.0026178125 0.0060139787 -0.10402041 0.5974508 0.7177835 1.2111677 -0.26913708 -0.3277542 -0.06371729 -0.14057289 0.3365997 -0.04380883 0.7781666 -0.073169135 -0.2533843 0.4991684 -0.37335384 0.3822812 0.34463173 -1.0559988 0.63086456 -0.0499523 -0.3444629 0.38883537 -0.30524585 -0.047476094 0.86433965 -0.09091285 -0.19504449 -0.7240395 0.7439836 -0.023550553 -0.08543158 0.38723123 0.5793628 -0.9328142 -0.86121315 0.3086911 -0.016632495 0.72430265 -0.10772824 -0.025314612 0.52448213 0.041392293 -0.40849397 -0.032921687 0.45989767 0.43595028 0.5089974 -0.12539557 0.76553136 -0.10905398 -0.23083869 -0.35901073 0.19426447 -0.18609609
dveloppeur -0.7560121 0.75243646 0.72087455 -0.31318718 0.083803244 -0.62379783 0.5318983 0.36370566 -0.18644752 -0.33414757 -0.10332211 -0.33169872 -0.07847706 0.22135188 0.59791857 0.45260832 1.39987 -0.071451634 -0.49245444 -0.5950627 0.17326121 0.41465008 0.47807157 0.23639508 0.7167771 0.746641 -0.37079287 0.1709513 0.35882843 0.29198098 0.8883428 -0.15744887 0.61554015 -0.35702944 -0.5209846 0.8806056 0.89545995 -0.17070916 0.6626 -0.40545756 0.07031337 -0.8324291 0.07657642 -0.33048213 0.06972417 0.098538324 -0.34417936 -0.34192035 0.02931474 0.26238838 0.26308796 -0.27214748 -0.35024986 0.29178086 0.28613022 0.7316306 -0.1430121 0.3828366 -0.7106227 0.83717185 -0.37773785 -0.23461832 -0.82016534 -0.23646268 -0.19836634 0.14873041 0.62271625 0.04630419 -0.25782064 0.6712948 -0.45344123 0.5506571 0.55066556 0.41342756 0.75829875 -0.47618413 -0.2231261 0.24075894 0.85380495 -0.19971646 -0.47276792 -0.096684486 -0.31549913 0.09747539 -0.21706872 -0.061058618 0.26345718 -0.095852345 0.7573782 -0.07912447 0.108384684 -0.00073407515 0.4574716 -1.0789704 -0.80158573 0.51458585 0.35509956 -0.49157956 -0.54382545 0.5663857
java 0.016172523 0.5300941 0.21520635 -0.55242324 0.824424 -0.38193905 -0.048717454 0.52320105 -0.94161195 0.32144576 -0.808426 -0.122711636 0.3294704 0.23206592 0.39388326 -0.91440904 0.47383705 0.81132317 -0.47052565 -1.052611 0.058231514 0.8594129 -0.54502106 -0.018922932 0.46273735 -0.53953964 0.44010925 0.4365563 -0.5922236 0.25625506 0.7449694 0.39394498 0.2725908 -0.43416655 -0.3528543 -0.60262513 0.58547777 -0.33099195 0.013811704 -0.5889216 0.2815476 -0.11622251 -0.28769505 -0.6061738 0.8766291 -0.41708243 -0.23533191 0.5038695 0.018922592 0.32201242 -0.40386528 -0.4575298 0.065244265 -0.12961231 -0.4998624 -0.23830907 0.1661346 -0.36615378 -0.5969667 -0.09788714 0.6884577 -0.7702864 0.06797458 -0.1017705 0.41129917 0.079287745 1.1111363 0.56185246 -0.4178377 1.4482945 0.04719159 0.48060057 0.42251325 -0.17401013 -0.14971718 -0.02812906 0.6358894 0.3616159 -0.057856176 -0.6265836 -0.4724257 -1.5042415 0.083163925 1.4168258 -0.9317622 0.048445713 -0.39710724 -0.08880021 0.8615775 0.21321754 -0.10576235 0.13365518 0.5223254 0.27986407 0.21033035 0.61731356 -0.24320811 0.24934003 0.52388793 0.25203148
participer -0.15852298 0.967531 0.19501044 -0.2564888 -0.15323058 -1.4285427 -0.025858162 0.66467506 -0.055081144 0.3037685 -0.3836985 -0.2773725 -0.0044066235 -0.020375706 0.67740965 -0.17333864 0.39807218 -0.6484157 -0.9075729 -0.20046563 0.7812877 -0.39913535 0.30056363 -0.002296244 -0.9035536 -0.10226039 0.027725521 0.3116371 -0.59387654 0.22816496 -0.39816636 -0.8738015 0.6080512 -0.012471258 -0.25063807 0.18552542 0.92682207 -0.5234286 -0.99227333 -0.901929 0.3767503 1.172461 0.3372392 -0.18669336 1.0665135 -0.6535821 -0.56606257 -0.4117185 -0.072696775 -0.56073934 -0.12810268 -0.9274602 -1.132022 -0.76929665 -0.3522332 0.36488372 -0.12881763 0.37785324 0.057102088 -1.0555253 -0.16283463 0.62327254 0.12786019 0.85520357 0.09794642 0.2931717 -0.01885286 1.1283234 -0.024866 -0.5851368 0.16275883 -0.1866885 -0.0526223 0.59327763 0.63442713 -0.12422572 -0.42282283 0.21613613 0.07259728 -0.38348907 -0.12924609 0.66646284 0.18853927 1.1029384 -0.44055536 -0.756685 1.8559797 0.19800107 0.20699875 -0.7106131 0.12056181 0.08847711 -1.0372345 -0.58684707 0.14670406 1.0323771 -0.56993425 -0.44416514 0.07107397 -1.7588727
techniques -0.42119914 -0.25388348 -0.6384633 -0.6669945 -0.27487907 -0.38450217 0.30881009 1.0905861 -0.20474432 -0.01530039 0.029396825 -0.42239568 0.017903872 0.34559807 -0.18368512 -0.05165334 0.35962665 -0.49367917 0.66000867 -0.8525282 0.476487 -0.83012575 0.4862644 0.26281026 -0.6538548 -0.20778519 0.009213226 0.067573555 -0.84462583 0.4665934 0.05507942 0.60984194 0.99939346 -0.3398931 0.92465776 0.279062 0.46892673 0.23600294 0.0291411 0.46991703 -0.027245635 0.004164053 -0.6279095 0.88238215 1.0525805 -0.48525178 -0.40757978 0.945835 0.42729974 -1.0257831 -0.20441484 0.4896213 0.684238 0.26076853 -1.016252 0.13616736 -0.7514802 -0.59958404 0.37537313 -0.106985494 0.15393928 -0.94185436 -0.24262597 -0.5704699 -0.30695957 0.52574104 0.3217716 0.35257143 -0.5041665 0.37872958 -0.6312431 1.36627 -0.35561496 0.34558207 0.069407895 1.2302991 -0.12598626 -0.042543866 0.598743 -0.970637 -1.1803893 0.16829926 -0.20499976 0.33067846 -1.109798 -0.35875055 1.643499 0.41007575 0.11313873 0.11188225 0.7387706 1.1544907 0.08650861 -0.18879318 0.9746738 0.36215577 0.7191965 -0.4356607 -0.0718057 -0.020745087
technique -0.7779254 -0.16991097 -0.4558816 0.26101986 -1.2517574 -0.31867164 -0.19700032 1.2160532 -0.08590576 -0.9442812 0.33621415 -0.3023644 -0.44265217 -0.18335699 0.15303461 0.45398885 -0.4203102 -0.58143514 -0.21124823 -0.54508936 0.66493577 0.076405816 0.99744517 0.49692133 -0.34864977 0.31508604 -0.5476691 -0.5368081 0.3843429 0.18881829 0.24351254 -1.0588803 -0.23647018 -0.86427164 -0.92367446 0.887444 -0.3624007 -0.5862192 0.60450923 0.4156976 1.3453963 -0.6171153 -1.2137194 -0.013349835 0.31886744 -0.10377857 1.221005 0.05546164 -0.17776614 0.6697383 0.31934044 -1.2019104 0.19123417 0.21502611 -0.41516212 -0.28096184 0.5494056 -0.01603589 -0.33700615 0.116366364 0.26322886 -0.6222207 0.3945913 -0.5953315 0.51845723 0.59766436 0.26974905 0.23464021 -0.5603143 -0.4288501 0.2785078 0.24934472 0.07853429 0.759545 -0.45564938 0.31409448 -0.2917713 0.32667404 -0.55514085 -0.8229115 0.4319006 -1.1165015 -0.89657015 -0.038136963 0.1795161 -0.5055264 0.50346786 0.9896137 0.56471133 -0.7728998 1.1361195 0.72653085 -0.93234324 -0.93442756 0.87290376 0.46777448 0.4211679 -0.5887902 0.1458288 -0.15377921
tests 0.4913501 -0.36629763 0.18161832 0.56118083 -0.046896588 -0.01587665 0.7933994 0.2230498 -0.4056301 -0.47550765 -0.33590364 -0.56283635 -0.11782487 1.0259148 -0.49513704 -0.16483898 0.04211187 -0.7051317 0.3436941 -1.4718891 -0.09519116 0.80571187 0.87894267 0.46748954 0.06374943 0.70938414 -0.3585451 0.5102081 0.32593036 -0.4749398 0.5459595 -0.30469826 0.5860297 0.066347115 -0.2856617 0.14419942 0.19934732 -0.49433616 -0.5144827 -0.97060853 -0.2525617 0.22918646 0.35457528 -0.609663 0.7149973 0.83580035 -0.70904225 -0.73809344 -0.21780242 -1.0743994 0.5935271 -0.6045301 -0.7103015 0.8676473 -0.407533 -0.32685038 0.4824938 -0.8799656 -0.45646814 0.25957766 0.031321988 -0.6774462 0.21219197 0.724938 -0.43603137 0.44846833 -0.5395664 1.2014736 -0.19722797 0.23486616 -0.81261116 0.82445264 0.14113979 0.01735929 -0.16222176 -0.3933095 0.25242427 -0.6981683 -0.38946092 -0.20597132 -0.2538735 -0.2052903 -0.78578305 -0.04789261 0.09323437 0.025367402 0.5916876 -0.21472928 -0.015079749 -0.17439705 -0.20535614 -0.05123364 -0.57791215 -0.0727768 0.8464948 0.6529422 -1.1407181e-05 -0.07838177 0.0061433846 0.114228174
quipe -0.24787399 0.07492029 1.0002104 0.3859333 0.08649792 -0.64486426 0.007560823 0.025424888 -0.44983432 0.48383468 0.34943163 0.2458399 0.3107403 0.012980877 0.07538473 0.46916887 0.6736325 -0.28533763 -0.6040845 -1.5569947 0.2903428 1.171595 -0.2703942 0.15713115 -0.8599444 -0.04711581 -0.42524225 -0.13016246 0.26285225 0.082327224 -0.122729056 0.619968 0.9597889 -0.47597706 -0.47456107 0.30059388 -0.5896257 -0.3017529 -0.8946799 0.12987843 0.84275085 -0.40537822 0.13884604 -0.07630408 0.3982123 0.11656767 -0.47176126 -1.1123682 0.36751413 0.038803406 -0.84281117 0.6877047 0.47821993 -0.1313457 -0.49828252 1.0570198 -0.566173 0.6563286 0.6899986 0.9716705 1.1488334 -0.6537401 -0.17607044 0.71824944 0.053616013 0.7406704 -0.22723049 0.625966 0.32455498 -1.0451689 0.28465405 0.18991968 0.61333376 -0.034072403 -0.057100866 0.7133777 1.2305187 -0.8489771 0.011972101 -0.32500523 -0.8751567 -0.5134652 -0.6806824 0.4704955 -0.060378652 0.10431745 0.26642558 1.1922653 0.35889634 0.22476718 0.19276823 0.14159514 -0.78189397 0.5821749 0.06375364 0.62606937 0.090196535 0.4517749 0.67218566 -0.2451094
lquipe -1.3889723 1.3933854 0.54388255 0.28000578 -0.20382306 0.5437942 0.10849984 -0.32225484 -0.37282228 -0.31089044 0.2766091 -0.7121852 0.2607104 0.22808102 0.7804036 0.46679989 0.15837575 -0.9604375 -0.47607276 -0.7501267 0.4514167 -0.12105668 -0.36252892 -0.2876894 -0.03237806 0.27343348 0.6785698 -0.94376016 0.31269282 0.03392641 0.9430123 0.18767956 1.2062635 -0.20805469 -0.37894103 0.83071285 -0.78989947 0.9042781 -0.48378527 -0.28455803 -0.07115133 0.17839843 0.22800736 -0.6014549 0.83702254 -1.429265 0.63845724 0.22237946 0.8657105 -0.15845557 0.35269377 0.14160642 -0.50600004 -0.084415615 0.08405256 0.33836752 0.03089603 0.24688013 0.1893162 0.06400776 0.49109852 -0.7173996 0.6873115 0.31000105 -0.7709165 0.03504234 0.46808648 -0.0640557 -0.6821279 0.08816324 -0.84054327 -0.049798764 -0.18695216 0.8556481 0.090160966 -0.51252776 -1.202478 0.2530646 -0.22852944 -0.425127 -0.89048076 0.35751095 -0.26682553 1.0141991 1.0029923 0.8265915 0.60427976 0.14675131 0.32038084 0.19902197 -0.06328327 0.61244273 -0.22446689 -0.58632183 0.67262995 0.9737222 -0.51475006 0.28071392 0.27294502 -0.6731207
mise -0.70609343 -0.6424108 -0.43996418 0.32327402 0.14845766 -1.0798383 -0.22020707 1.030005 -0.78560936 -0.07439717 0.5141902 -0.007425785 -0.27569333 0.117983624 -0.26016042 1.236285 0.4835818 -1.5074589 0.27583936 -0.60587865 0.4071418 0.34852177 0.25101534 -0.3190054 0.54526573 -0.23620702 -1.0006527 0.8370477 0.11583984 -0.44141993 0.18701005 0.3672767 0.6042411 0.66516864 0.007776085 -0.031793423 -0.61530566 0.2969062 -0.41093773 -0.37524697 0.89751065 1.061933 -0.18686777 -0.2993906 -0.14398926 -0.11692189 -0.06389938 0.081580214 0.3558456 0.5413527 0.572974 -0.20988245 -0.4015927 -0.028843675 0.1611361 -0.6260396 -0.38898605 -0.07143554 -0.20249027 -0.46849105 0.22105488 0.47917926 -0.7983508 0.18486515 -0.11442381 0.95844483 0.2546493 0.27611887 -0.59579927 -0.24488567 -0.0033602717 1.1174614 -0.14223897 -1.2377445 0.32978138 -0.700556 0.59935504 0.08466805 0.6899898 -0.31332806 -0.68481743 -0.4770616 -1.2252027 1.4722875 0.1686395 -0.20162666 0.16873832 0.42331082 1.049918 0.90693355 -0.5153101 0.7767819 -0.26589987 0.65257865 1.1633971 -0.21410851 -0.8661624 0.5539779 1.0104429 0.38956344
donnes 1.9241378 0.37491372 0.76576304 -1.4404393 -0.4437914 -1.293914 -0.6535504 0.39980504 -0.6446093 -0.904727 0.15730186 0.08531212 0.23955847 0.06051019 -0.26926962 0.0011557814 0.3854017 -0.8255514 -0.10711308 -0.74857795 -0.3019262 0.23666772 -0.39913797 -0.41781685 -0.9065217 0.025691438 0.14096461 -0.25203514 0.28897497 -0.00944318 0.5084239 -0.33813155 0.8125894 0.3037589 0.14408901 -0.057816718 0.7069572 -0.71646696 -1.244377 -0.41059425 0.14559875 -0.44700545 -0.7674307 -0.15327865 0.08247364 -0.10581 0.10316237 0.4303693 0.10110054 0.28215584 0.34136605 -0.4088312 -0.32687885 0.49707866 0.5228559 0.24883011 -0.74861133 0.25245565 0.6221573 0.29924446 0.004578432 -0.69227004 -0.5074532 0.38606462 -0.4564936 -0.6775249 -0.74011666 -0.49475476 -0.12190039 -0.052607175 0.25805044 0.6603327 0.5490673 0.14949581 0.28011993 -0.17241855 0.7224616 0.19791688 -0.35946515 0.11038438 0.3024061 0.57525295 -0.6985818 0.8193606 -0.75133663 0.62224615 -0.37088418 0.08601482 0.73664564 0.8008556 0.19533426 0.78915006 -0.2160052 -0.044183813 0.12701581 0.5545706 0.3074388 -0.580606 0.33810487 -0.9273715
nouvelles 0.8202328 0.58988166 0.2566138 1.0864154 1.042513 -0.58749735 0.9323095 1.4573227 0.22822139 -0.25291982 0.15327139 0.4272607 -0.46156493 -0.5117535 -0.42689273 -0.25995645 -0.26114076 -0.800237 -0.65851015 -0.7096272 0.5694036 -0.32307956 0.40343717 -0.39606848 -0.47879124 -0.15625797 0.06705016 0.19197038 0.31745824 0.19186193 -0.10270585 0.0064885397 0.26249644 -0.1898011 -0.83822423 0.65105754 0.4469546 -0.8194982 -1.4659111 -0.48702377 -1.0412216 0.8285141 -0.033264924 0.031051816 0.245017 0.78856754 -0.025446424 0.43295032 -0.25570595 0.2526208 -0.25359303 -0.5641539 0.087712094 -0.27836254 0.09960567 -0.30532002 -0.25923195 0.4456706 0.2407665 -0.73262405 0.49645516 -0.98050976 0.5738782 -0.49704453 -1.0242845 0.68806475 0.5360953 1.0566684 0.08746056 -0.09291903 -0.9092468 0.1364839 -0.11613939 0.44832858 -0.07107777 1.0504012 -0.5203308 -0.091725655 -0.27219057 -0.55258787 0.013782967 -0.17401095 -0.47543857 0.46937487 0.2848131 0.51965827 -0.8332702 -0.4010325 0.1983018 -0.16018379 0.63753486 0.057383437 -0.5800888 0.06906982 0.8865204 0.1428211 -0.47698957 -0.054466717 0.18202758 -0.10762815
projets -0.57076883 -0.046785984 -0.21554826 0.65905523 0.43131033 -0.39431196 0.1541037 1.4857514 -0.5884798 -0.49526957 0.18397214 0.5789165 -0.14065614 0.2702722 0.14783011 -0.5402258 0.0769649 0.20437442 0.5402688 -0.6283125 0.614115 0.6024424 -0.38274208 0.23015647 -0.1750705 0.3317467 -0.35047498 1.284827 -0.85190487 0.5476578 0.11261315 0.038265884 0.50559074 0.12482126 -0.041301213 0.31573617 0.17971551 -0.4470535 -0.21694207 -1.0872481 1.2428524 0.27448577 -0.5223658 -0.33734697 0.3737765 -0.34664908 0.7479755 0.07398978 -0.1741223 -0.01598922 1.0404023 -0.05351336 0.612714 -0.3454372 -0.1952123 -0.18141043 0.19829996 0.3206227 0.51352936 1.7311608 -0.09734377 -0.094049945 1.4328206 0.05414527 -0.6605598 0.16177388 1.4548023 0.55512196 -0.59670687 0.29247123 -0.020285226 0.6829377 0.081629075 0.51104766 0.29150438 0.10432881 0.04241534 -0.8391135 -0.3931326 -0.039565824 -0.33935365 0.45812902 -0.3163704 0.56127805 0.915342 -0.09561372 0.8730033 -0.23054066 0.080174685 -0.39928505 1.3609029 0.32479963 -0.38557148 0.96606386 0.9500872 -0.28136575 0.06756111 -0.36740088 0.53800654 0.11600688
dune 0.058544055 0.18514301 -0.60767144 0.50379497 -0.7821268 -0.77197194 0.26663655 -0.86807126 -0.62481457 -0.14346038 -0.322412 -0.5020952 -0.7107794 -0.5185054 1.1652503 0.47161394 1.2563319 -0.19838251 -0.022279527 -0.96846694 0.71824706 0.8369375 0.70615435 0.47146773 0.29713368 0.95971835 -1.255501 -0.112976626 -0.68214226 0.43804014 0.14210036 0.65895516 1.521269 -0.14122044 -0.15746897 -0.10528137 -0.9584372 0.31401283 -0.2857021 -0.29045284 0.2990581 -0.3709307 0.23130797 0.0036104545 0.19749944 -0.26646563 -0.492443 0.19351548 1.7182447 0.36377442 0.28717467 -0.16359612 -0.20526302 0.3901022 0.094441086 0.18814643 0.24220836 -0.2950212 0.2731339 0.2079968 0.44877264 -0.77661234 -0.5077029 0.19121496 -0.085014015 0.4546487 0.90474373 1.1301752 0.57753336 0.27003562 0.25228873 -0.10926522 -0.58689487 -0.041229285 0.53046584 -0.021150809 0.10629489 0.53918487 -0.5398964 0.07805361 0.11572318 0.43279627 -0.43870357 1.3870965 0.536167 1.4280615 0.64555085 0.38260326 0.8044298 -0.91033775 -0.037106942 0.7862074 -0.4637478 0.12464015 -0.25741667 0.30645907 0.010684881 -0.11696906 -0.61455864 0.89927685
conception 0.54831076 1.600109 -0.433212 -0.30713892 0.5279921 -0.6608494 -0.6325597 1.45713 1.08699 -0.7938582 0.83346814 -0.61933124 -0.54483473 -0.75323284 0.026257377 0.9022324 1.1351047 -1.2193487 0.48949048 -1.6108816 0.024830183 1.0219902 -0.94034976 0.07781659 -0.14301667 0.38039207 0.10438131 -0.6018998 -0.78619766 0.72092545 -0.6271072 -0.107595146 0.55227256 -1.2441078 -0.40595022 -0.43206194 0.5519906 0.6752518 0.5003972 0.35038507 0.45416954 0.2498961 -0.34757861 -0.28527144 0.98362404 0.37599683 -0.6489926 0.38711053 0.6181988 0.40087974 0.44106504 -0.808159 0.29945266 -0.30949017 0.516602 0.121961586 0.6096312 -0.3977942 -1.1190836 0.5980427 -0.75428706 -0.18511795 0.6224852 0.32595608 0.772642 -0.6023722 0.15100066 0.32465473 -0.4028824 0.0066556814 -0.17954291 -0.2926952 0.56626946 -1.0375779 0.5987797 -0.40657654 0.3070079 -0.6411693 -0.63877535 -0.64122826 -0.4255363 0.14801733 -0.18344764 0.5712309 -0.8244511 -0.034428146 0.18166676 0.18255411 -0.28544572 -0.9794956 1.1519802 0.21446332 -0.24250738 0.31712857 0.13668188 -0.36443883 -0.12525713 0.03404642 -0.0064652995 -0.147505
code -0.50190955 0.53601664 -0.83396196 1.2128806 -0.043877464 -0.75912184 -0.041355293 1.1645848 -0.34993243 0.5355034 -0.14478175 -1.2748053 -0.59485626 0.87689507 -0.20741951 -0.87959176 0.052233987 -0.9712601 -0.5114084 -0.82468677 0.15071952 0.9636794 -1.5060533 -0.4216515 -0.7729859 -0.005546327 -0.015912974 0.22892287 -0.02997552 -1.756832 0.42078838 -0.7224202 0.34933662 0.6170626 -0.72341466 0.75372887 0.4201606 -0.31822708 -0.4449241 -0.32508573 0.4171072 0.25034308 -0.12172028 0.63563883 0.15656635 0.27435926 -0.8757867 -0.49910745 -0.23999101 -0.5006781 -0.107018776 -0.9564735 0.36358684 0.7665722 0.34352013 0.27140278 0.42365766 -0.59689724 0.3268846 0.5083971 0.84015405 0.6973708 0.12306805 0.08949882 -0.11199393 0.3376027 -0.7091765 0.23875749 -0.4566725 0.621487 -0.30838466 0.13732989 0.13080435 0.33983597 0.52015704 0.2802408 -0.5810535 -0.6511818 -0.57019955 -0.53682464 -0.69627005 0.17332189 -0.682978 0.4768366 -0.7489687 0.26150218 -0.24526042 -0.10774351 0.81936926 -0.67735124 0.20625083 0.5792668 0.30643645 -0.5515246 0.06445541 0.37211686 0.6224906 0.3490986 0.28779322 0.15939228
applications -0.744357 -0.49131224 0.04470081 -0.09640415 0.35098156 -0.42434305 -0.6888109 1.2881062 -0.41864464 0.02116566 -0.0020491595 -0.93361294 -0.54492366 0.682376 -0.24449043 0.7629742 -0.16986164 -0.26462528 0.027654767 -1.301813 0.81504273 0.9206059 0.83483654 0.21613626 0.2831823 1.124131 1.078073 -0.6275771 -1.2331507 0.31068957 0.5351691 -0.9781608 0.9521345 -0.51229244 -0.67348075 0.5836813 0.87584573 -0.32342958 -0.50188035 -1.0790772 -0.1551063 -0.4764012 -0.031564992 0.75603634 1.0399348 0.026171347 -0.19600135 -0.41938382 1.0793535 -0.04079744 -0.87059116 -0.6277847 0.010287682 0.3548295 0.4183406 0.060047787 -0.27502024 -0.61222994 -0.20944159 -0.29492086 0.033022314 0.08847269 -0.15112871 0.4604462 -0.5223876 0.6029742 -0.69257677 -0.15829468 0.49609727 0.1359234 0.4175489 1.311473 -0.4023307 0.6496745 0.08948854 -0.15622585 0.09573002 -0.7638382 -0.19800818 -0.632301 0.1957685 -0.36020395 -0.24920124 0.108617105 -0.63891405 0.14603695 0.269873 -1.1006769 -1.2728537 0.47980726 0.9264068 0.298977 0.10744625 0.65060526 -0.034873758 0.89475644 -1.1720974 -0.5970464 -0.39099535 -0.44974813
outils 0.2980582 -0.06427182 0.04184542 0.11129218 0.20418435 -1.0128791 0.07035474 0.55208063 0.19362727 -0.41129047 -0.7197342 -0.025333198 0.4358503 -0.32842848 -0.029329887 -0.42787105 -0.18523945 -0.854017 0.69521105 -1.0885389 0.3211323 -0.4965027 -0.17887397 -0.6348799 0.393964 -0.16307026 -0.17980342 -0.4171668 -0.4342222 0.09896361 -0.4453691 0.41782194 0.31222168 -0.73673993 0.044178452 0.843144 -0.2841895 0.092487544 -0.36298034 -0.78736144 -0.07513524 -0.8774302 0.29394203 -0.495778 1.1682259 -0.3738552 0.0020496834 -0.18169689 0.09593741 0.32020253 0.61263174 -1.0775441 0.33969933 0.993912 1.3896914 -0.64276457 -0.31100962 -0.32406947 -0.5553336 -0.8414278 -0.037816383 -0.5546714 -0.79045916 0.117314406 -0.10817619 0.7517782 0.14864284 0.735551 1.1270492 0.58915347 0.5465154 0.4626188 1.3239474 -0.016529312 0.86444324 0.17262681 0.9226252 1.1469598 0.17559177 0.9281409 0.24547225 0.24777664 -0.4658679 0.41839612 0.7688388 -0.74474066 0.16921613 0.20859073 0.5059478 -0.70810664 0.62435603 1.6963559 1.0982292 -0.5749578 0.25207183 0.16680938 0.68580854 0.5161008 1.8176974 0.074717194
clients 0.20222421 0.25853232 -0.35546204 0.11246529 0.21477686 -0.37037578 0.07562433 0.80296636 -0.2680634 -1.1399279 -0.4669431 0.51680684 -0.53422296 -0.061671697 0.67456144 0.3871889 -0.33065453 0.9529079 -0.04725225 -0.34154633 0.9254825 -0.49625543 -0.11569128 -1.2179413 0.8148994 -0.991686 -1.5957735 -0.46420485 0.60506374 0.05290805 0.5547558 -0.6262338 -0.051248603 -0.10184014 0.1961651 0.24902606 0.2731967 -0.037465844 -0.46003273 -1.4629986 -0.41838336 -0.7163659 1.3673267 0.49351022 0.15588407 0.99101925 -0.24450262 -0.22326878 1.0727125 -0.12463894 0.067227714 -0.5056819 0.1985172 -0.18096364 0.32503703 0.69070864 0.039193507 1.0391386 0.077440545 0.74039525 -0.024594642 0.70468515 -0.37293905 0.6246335 0.28585604 -0.14344275 0.97103655 0.4081445 -0.568658 0.7395461 -0.20906441 0.46216834 0.4587038 1.3152819 0.2247688 -0.10093711 0.47847682 0.20737447 -0.7214283 -0.3874602 -1.7649736 0.04854559 -0.86192983 0.98662454 0.959684 0.045120038 0.3968255 -0.1419001 0.46838212 -0.27027643 0.6170276 0.19773237 -0.35645306 0.171292 0.73432773 0.04032739 0.30644482 -0.30859694 0.09734524 -0.21225992
sein -0.10282087 0.35635525 0.63933295 0.8426498 -0.5174853 -0.33829248 0.48367366 0.07713873 -0.18815841 0.2983379 -0.49192646 0.71654344 -0.19761702 0.032577585 1.0008063 0.035013594 0.95571387 -1.7766334 -0.41114226 -0.6925128 0.5390834 0.2088549 -0.48109558 -0.32418996 -0.31430143 0.41902214 -0.15360665 -0.93541896 0.0768812 -0.21280567 0.075264506 -0.38317332 0.69767636 -0.19389355 -0.73918587 0.7504058 -1.4031595 -0.88878787 -0.49221322 -0.13239747 1.2726903 0.12695561 -0.12966281 -0.07340029 0.3601745 -0.23062018 -0.41650143 -0.12174434 0.5686121 0.5301961 -0.21649037 0.62353206 -0.8589195 -0.39745343 0.45161572 1.1480819 -0.2732242 -0.17585914 0.7802656 -0.0190317 0.45550245 -1.2370973 -0.6134352 -0.85800284 0.17456362 1.302099 -0.6768504 0.77697814 -0.115521096 -0.6029967 -0.53525627 0.01665637 0.5985268 -0.58725524 0.2053147 0.40780306 0.3318591 0.13891193 0.26575926 0.4728383 -0.5772488 0.56574464 -0.7210821 0.6167385 0.64557374 -0.06318446 0.47887573 -0.12086809 0.48236233 -0.8504359 0.40733495 0.00841023 -0.25251248 1.2787161 0.681107 0.013132134 -0.88338983 0.050821573 0.064986125 0.49437505
dvelopper 0.47185686 0.25457123 -0.5721997 0.9282141 0.6853769 0.117670864 0.5191254 -0.099464536 0.9741033 -0.32300797 0.29074112 -0.8716907 0.5281017 0.7632509 0.68605363 -0.16851741 0.52331084 -0.14802879 -0.8393326 -1.3348064 0.4186202 0.5060346 -0.28890043 -0.44393003 0.10016666 -0.84342986 -1.3343571 0.2692156 -0.7016471 -0.37170488 0.17450225 -0.047432557 0.9119365 -0.35454914 -1.7421873 0.053733036 0.4566254 -0.29803005 -0.30195048 -0.7545186 -0.033485357 -0.49099097 -0.10948474 0.9329131 -0.038049884 -0.1185289 0.5030324 -0.36037484 0.05771806 0.12300196 -0.28403935 -0.55323315 -0.2885526 -0.2702691 -0.5363313 -0.042947 -0.34012085 0.5979033 -0.51341003 0.38825816 0.45137045 0.68038446 0.00056373567 -0.18287781 -1.6461344 0.42313302 -0.7153696 -0.19011088 0.93013513 0.065755464 -0.28597045 0.35482216 0.016287556 1.2138283 0.5983885 0.79590636 0.253962 0.12844136 -0.09154807 -0.71785563 -0.5630723 0.58834094 -0.9326382 0.5229612 -0.6597382 0.34251702 0.33781278 1.2826157 0.41842532 1.1715175 -0.35241777 0.151593 -0.434733 0.12079086 0.58169603 0.45540455 0.17569627 -0.30280986 -0.56097865 0.4752838
ingnieur 0.3862776 0.35902715 -0.067050956 1.0874422 0.19414261 -0.317685 -0.2461304 0.78012496 -1.0957402 0.3447229 -0.16939493 -0.25136063 0.54694647 0.34646654 0.7470884 0.50709414 1.0763249 -1.117346 -0.35664126 0.0016123841 0.20229591 0.0725488 -0.69546634 0.70671666 -0.3579925 0.6258907 -1.2189511 0.39951366 -0.22509854 0.21763678 0.779186 -0.07563896 0.33569047 -1.3955986 -0.7347647 0.49540186 -0.053703867 -0.6210725 -0.3215753 -1.8881853 -0.7164452 -1.2275478 -0.33561665 -0.2549306 0.0734719 -0.8594018 -0.44783404 -0.34296125 -0.17359117 -0.007889584 0.26915616 0.36077705 0.18943748 -0.7875038 -0.4179184 -0.2520353 -0.2416633 0.35155445 -0.33978602 0.18644376 0.617567 -0.047897186 -0.525799 0.093336135 0.6195206 -0.0046270024 0.7589786 0.14594595 -0.5130149 0.15293692 -0.31786543 0.6821759 0.46180117 -0.56756634 0.5003313 -0.25118893 -0.33361545 0.45533088 0.7071317 0.3025109 -0.73878694 -0.35293418 -0.44947553 0.69130045 0.18791337 0.50004244 -0.3415298 0.6956002 0.58179295 0.14667696 0.8916505 0.4597099 0.32694277 0.008183297 -3.6886646e-05 0.46968856 -0.8076352 0.51909894 -0.44259968 -0.22440404
scurit 0.45930216 0.53541255 0.8674204 -0.14910136 -0.2598102 -0.25510815 -0.81049645 1.4243807 -0.28031024 -0.69967556 -0.8203999 -0.4457496 -0.035534717 0.57277185 0.60741025 0.042230316 -0.6460653 -0.97606057 0.7732339 -0.5686713 0.1635466 0.2320291 -1.2110125 0.7136921 1.0424049 0.42280993 -1.0280104 1.3644089 -0.7241198 0.309652 0.26920953 0.053140398 0.096996844 -1.09388 0.3862273 0.65062875 0.31205103 -0.71350235 -1.0593327 -0.47139046 -0.072175056 0.027637353 -0.26170278 -0.59988636 0.6642075 -0.020446964 0.4992698 0.31136283 -0.5655772 -0.8825671 0.84073985 -0.02007216 -0.38787198 -0.6735293 1.3032689 1.3151591 -0.20854813 -0.18146908 0.1336443 0.11485692 0.3160118 0.73856777 0.49898952 0.69679457 0.23602794 0.28722012 -0.2152473 0.188431 -0.25833386 0.839488 -0.9707972 0.27724075 0.18222845 -0.19843985 -0.8462668 0.7314165 0.58866525 -0.109982766 0.027074965 0.079104826 -0.9341629 -0.6793174 -0.39278415 -0.23831491 -0.21957147 0.12120383 0.13483638 0.7845786 1.1652409 0.7961549 0.20873651 0.7432071 -0.35336086 -0.43501025 1.1700522 -0.24140914 0.04083273 -0.04927109 -0.20182353 0.59953165
gestion -0.6978952 -0.383913 0.5472072 0.020741526 -0.6739613 -0.7421027 0.3242879 0.7879301 0.4653208 -0.24418102 -0.9888904 0.4967336 -0.6496425 0.32496002 0.122566015 0.0068586627 -0.29978177 -1.4048738 0.7652497 -0.333258 0.2973148 0.4810117 -0.13369617 -1.236694 -0.8578058 0.11808047 -0.022676975 0.34920433 -0.35570762 -0.32393262 0.7353917 -0.10739598 -0.6519622 -0.31550816 0.49520916 -0.2101518 1.0348547 -0.087707624 -0.17171034 -0.34792632 0.68922096 0.10178575 0.1373209 -0.77210087 1.1139617 -0.22577417 0.23375356 0.27574337 -0.41377416 1.0364447 0.31437907 0.08841141 0.1822374 0.35147646 -1.0095788 0.40431437 0.97236854 0.49636602 0.68001497 -0.23619056 -0.6217834 0.115466185 -1.3184681 1.2545393 0.120526634 1.004778 -0.33219165 0.12234793 0.351268 1.559969 -1.0450342 0.38093963 0.028388226 0.4450504 0.9550683 -0.5232581 0.5691445 0.36663848 -0.76968765 -0.2080748 -0.15903819 0.45066184 0.0249746 0.987333 -0.24719355 0.07280666 -0.22695526 0.5819167 -0.380125 0.7485098 0.30128548 0.64325064 -0.7730671 0.11969905 0.35994795 1.2390857 0.22450697 0.6188661 0.24112825 1.055535
missions 0.2756764 -0.05236838 -0.36974224 0.5624683 -0.47408196 -1.0098301 0.73915267 1.2142973 -0.75052506 -0.753452 0.7290322 -0.4760401 -0.17970361 -0.16556609 0.12255811 0.309298 0.5601828 -0.19190711 -0.6037601 -0.5643923 -0.5187918 -0.22047633 -0.82590944 -0.09453113 -0.652889 -0.065554686 -0.10369181 -0.16023664 -0.2260926 -0.6340776 1.3440231 0.30574208 0.58339036 -0.5715536 0.17016362 0.17000426 0.3312353 -0.7819427 -0.11627304 0.1580145 -0.06962661 0.053392388 0.9831914 -0.62690485 0.9562973 -0.17408586 0.49742636 0.32448158 0.58968365 0.44216108 -0.39463186 0.7633227 0.14667362 -0.100577645 0.62061036 0.99420804 0.98835784 0.67157745 0.38507444 0.72309554 0.86468166 -0.19222307 0.022165056 -0.3453401 -0.23511247 0.58448595 -0.79910815 0.041262098 0.17244487 0.998778 -0.68849933 0.025985748 0.6003712 0.6596896 0.08452556 0.4311934 0.31118715 1.0210621 -0.35132796 -0.22760963 0.39496988 -0.3997159 -0.98781604 0.3756598 0.9355056 0.32749304 0.09314912 1.0079312 0.7447799 0.528613 0.42359263 -0.6543658 -0.3742657 -0.12070355 0.11299656 -0.2639016 0.80268204 -1.208314 0.33840287 -0.50931865
web 0.44053838 0.17749466 -0.07846304 -0.6252294 0.27055493 -0.5341788 0.09767411 0.84285444 0.30191535 0.32638785 0.46697345 -0.16265817 -0.67010957 0.8814436 -0.43286225 -0.34427074 0.4330272 0.07592908 -0.482772 -0.9524665 -0.4534349 -0.18345243 0.28033623 -0.23805216 -0.60239697 -0.59837955 -0.62824285 -0.27210277 -0.6447085 0.5553093 0.07599758 1.2524269 -0.6272254 -1.0117865 -1.145052 0.70924544 -0.27585056 -0.5248134 0.4946806 -1.679915 -0.73198766 -0.13945034 -0.9663431 0.22261253 0.5414351 0.12580496 -0.47115383 0.42736095 1.0982214 0.45983672 -0.46115875 -0.30833063 -0.22482574 0.24513814 0.5938001 0.005754524 -0.5473279 0.3374279 -0.60252607 -0.31660405 -0.43452033 -0.33658695 0.1109483 -0.097492106 -0.18788537 0.64649767 -0.51033247 0.15093815 -0.089747585 0.30784208 -0.7567066 0.15795624 0.093459584 -0.86833864 0.33441013 -0.09386768 -0.63705945 0.72515 -0.19592093 -0.45502397 -0.004342807 0.22581778 -0.57825893 -0.22456963 -0.8789744 1.2285789 1.238373 0.758227 0.5551041 0.006813749 0.1705775 0.6099543 0.19623536 -0.80376965 0.79400533 0.14676616 -0.98552877 1.2054397 -0.2185373 0.29292223
dun -0.4802634 0.16122872 -0.51881194 -0.36664957 0.57042056 0.2807837 1.2238253 0.16769572 -1.6053877 0.2960022 -0.66438216 0.35919368 -0.34604982 -0.07816951 -0.27837 0.07677414 0.79592746 -0.69141364 0.32513234 -0.6828257 0.33416283 -0.88170224 0.35812482 -0.3442552 -0.52665406 0.2414733 -0.6478387 0.049900733 -1.068177 0.4575851 -0.011369236 0.08449438 0.46811673 0.1914044 -0.9810321 0.52046436 -1.1266723 -0.3988276 -0.548699 -1.2726417 0.950684 -0.479119 -0.09342341 -0.77087325 0.4708491 0.37926558 0.7121716 -0.43930438 0.97458166 0.21748737 0.34159082 -0.03947728 0.71910775 -0.27444533 0.03519333 0.99997926 -0.35122377 0.5348936 -1.0796816 0.013605414 0.9697094 -0.086746454 -0.116729684 -0.33864617 -0.554412 0.32288775 -0.17823118 0.88375103 -0.24612658 0.9140496 -0.41529694 -0.5909962 0.31615517 0.13217938 -0.1796926 -0.23394442 0.9466781 0.7169465 -0.5482513 -0.042530816 -0.81168526 0.28833368 -0.37432742 0.85976815 -0.14143266 -0.21342698 -0.72911036 1.8416926 0.16470309 0.20812699 1.2851952 -0.28123972 -0.40532196 0.16585167 -0.9067824 0.1793262 -0.07388829 0.79952973 -0.41237652 -0.35863665
react 0.69569737 0.039030727 -0.20534414 0.49868995 -0.08176391 -0.8967863 -0.03652952 0.08233899 0.376602 0.021900726 -0.1358216 -1.6825395 -0.42746478 0.35027596 0.6309129 -0.2881208 -0.07464151 -0.7250066 -0.3004793 -0.24165905 -0.28630382 0.39566725 -0.30953735 0.43740124 -0.903544 0.30192629 -0.29000255 -0.9000829 -0.9353238 0.49247402 -0.19630054 0.06457752 0.28508544 -0.3032096 -1.1725385 0.11959638 -0.36487734 0.60917825 -0.55741507 -1.2210666 -0.97830963 -0.4912943 -0.87884074 -0.92501855 -0.48358598 0.6640968 -0.5295691 -0.27236187 -0.009661291 0.39562222 -0.34886408 -0.90555114 1.086254 -0.79759926 -0.14673746 0.5854239 0.20926933 0.5351842 -0.7776601 0.47256273 -0.17016688 -0.07608344 -0.182536 0.14026359 -0.4239533 0.6118814 -0.70881844 0.76325005 0.056176748 0.37283266 -0.57715887 1.0993618 0.30822498 -0.37406787 -0.09706833 -0.21319129 -0.4039182 -0.1734773 -0.19181618 -0.97066027 -0.28415683 -0.12100979 0.6280743 0.5510364 -0.05776248 -0.8234838 -0.031691454 0.6639804 1.3654876 0.24808402 -0.010023065 0.32869157 0.47109845 0.5472924 0.66616184 1.3888623 0.20907694 0.54130304 -0.29323903 -0.4651298
fonctionnalits 0.47853988 0.096412085 -0.6312489 1.0205075 -0.15414584 0.11915956 -0.14359978 1.0515313 0.20485294 -0.2354983 -0.18833311 0.15741093 0.22052854 -0.45451376 -0.42560956 0.35820836 0.9769519 -0.3987672 0.1330705 -0.39810595 0.5917958 0.22077009 0.77479607 -0.24188323 -0.61566585 -0.35443547 -0.31781003 0.24184509 0.4146024 0.09191101 0.10375116 1.1113727 0.6143757 -0.4811972 -1.0506153 0.71974087 0.023215177 -0.32277972 -0.96154124 -1.0269221 -0.92378277 0.8996398 -0.073451445 -0.34404024 -0.32443863 0.4506361 -0.14770836 -0.0031832627 0.35689136 0.62762505 -0.572597 -0.7118546 0.14447993 -0.16741082 -0.25892287 0.123191975 -0.6311352 -0.27979687 0.09003037 0.073444396 0.27199847 -0.9065398 0.053870343 -0.64743775 -1.1023495 0.08005156 0.05069476 0.20022096 0.37341738 0.6514651 -1.250306 -0.1224845 1.3725784 0.96380705 0.03306358 -0.39268807 -0.098701514 -0.040498972 -0.7926448 -0.6615899 0.0072066793 -0.5059496 -1.4134376 0.5547296 -0.53112364 0.17845355 0.01950643 -0.116705805 0.22784835 -0.042723183 0.76024926 0.72302514 -0.4399362 0.87362725 0.06971275 0.32023984 -0.5692027 -1.0470123 0.15819857 -0.18955538
php -0.5612562 0.0473526 0.37559098 -0.69029695 0.7276727 -1.1377126 -0.043729123 0.47157252 -0.7639419 -0.0020405236 -0.22330047 -0.2038547 -1.074244 0.33527252 -0.15305293 -0.3216922 0.099082135 -0.8469218 -0.57053125 -0.52082 0.73148483 0.6376698 0.03091324 0.44721672 1.1292707 0.4647515 -0.6176571 0.59992635 0.39727962 -0.58473635 -0.14445241 0.4740263 -0.12752834 -0.6455729 -0.15569957 0.02023834 0.12123447 -0.68548584 0.79575664 -0.21743764 -0.1150636 -0.74923825 0.24025217 0.44102317 0.47049567 -0.028812964 -0.6766042 1.1271517 0.65601397 -0.570479 0.007856224 -0.9721965 -0.5197804 0.14854538 0.31834617 -0.41766897 0.0177763 1.4301043 -0.013754266 -0.030220546 0.28428826 -1.1654941 0.90019727 0.8554382 -0.30730054 0.7620321 -0.2017086 0.36728698 -0.33426479 0.2626827 -0.2746061 0.9924866 0.32402667 -0.66606104 0.4632868 -0.47558442 -0.2962705 -0.077172026 -0.580042 -0.06801663 -0.79430026 0.49089253 -1.0053104 1.8714429 -0.5083078 0.09082283 0.41510078 0.859519 1.0534794 0.42302468 0.26690695 0.316793 0.2784686 0.4997936 0.66110736 0.5768403 0.51113385 -0.80504996 -0.42872676 0.33040416
quipes -0.82964474 -0.27455822 0.48606345 0.94873387 0.7381293 0.23756254 -0.043667115 0.5792922 0.18436615 -0.1011619 -0.223124 -0.23937254 0.20311724 -1.2233564 0.5709605 -0.8118939 -0.003857972 -0.85775524 0.05568441 -0.76584166 0.3879446 -1.0586337 0.3538362 -1.084524 0.0784191 0.13837117 -0.6778054 -0.17356357 -1.3346059 -1.0792356 0.6582494 -0.5062981 0.09699883 -1.3547308 0.122917816 -0.09417414 -0.26256877 0.027768165 -0.7366554 -0.39110407 0.122713655 -0.6112612 -0.47402135 0.09747079 0.32540917 -0.005619577 0.70863104 0.20243935 0.67254764 -0.37540144 0.77955 1.0302128 0.6753288 0.6461958 -0.2766642 0.15851611 0.10737254 -0.4915543 -0.5237252 0.43718004 -0.2600896 -0.4409069 0.16766158 0.28046662 -0.11363084 0.95861983 -0.031662483 0.64018357 0.28233448 -0.1490261 -0.21857178 -0.137846 0.26563182 0.40278116 0.54283994 0.15779956 -0.08718234 -0.6871495 0.83276266 -0.082335465 -1.0004121 0.28295094 -0.63043344 0.40531293 -0.6682966 0.8256059 0.8971442 -0.006418688 0.7486886 0.39665368 0.8254751 -0.18558553 0.39317605 0.70807016 1.8993942 0.78775686 -0.43584046 0.115357965 -0.16760421 -1.2695961
solutions 0.44792974 -0.59357965 0.39651713 0.12695861 0.70090073 -1.8884536 -0.113728255 0.19664209 0.038944714 -0.31034958 0.6495944 -0.11757752 0.9321216 -0.090038225 0.6920217 -0.7478917 -0.2255958 -0.2684959 0.5002258 -1.3487655 0.51597404 -0.3336163 0.6648706 -0.54407436 -0.036531564 0.082519434 -0.9956598 0.90890044 -1.0467415 0.7139972 0.12609994 0.564381 1.115912 -1.0761511 -0.3568074 0.9430856 -0.3736174 0.6323396 -1.0394698 -0.16794956 0.4183886 0.27262765 0.6801887 -0.41117623 0.5604812 0.1597022 -0.50618 0.45164272 0.39143717 -0.0487818 0.19300488 0.11430036 -0.19272316 0.8158243 -0.5739233 1.1590265 0.4684009 0.22174072 0.6699794 -0.244522 0.33524325 0.24451867 0.22830136 0.7796735 0.19365591 0.18785904 0.054645732 -0.5245155 -0.22987129 0.25693843 -0.66762435 0.38734213 0.24204375 0.20198852 0.6223898 -0.51883894 0.04408343 0.20986106 0.15184632 -0.49031124 -0.4035048 0.03805571 -0.34781712 0.30599672 -0.57080567 0.61136985 -0.086963646 -0.0059931953 0.9386809 0.48566675 1.626951 -0.20489617 -0.552168 0.12384091 0.7701553 -0.7568519 -0.30701002 0.41941053 -0.7964424 -0.593764
place -0.158975 -0.9957443 -0.8957089 0.1889507 0.04166755 -0.4931876 -0.35065228 1.4689796 0.093618944 -0.39186394 0.26042423 1.0363246 0.37300906 0.29885495 0.80697113 1.2107422 0.13071063 -0.9516548 0.37858328 -0.69990385 0.3720721 -0.023528246 -0.67930657 -0.11646213 -0.034216445 -0.17895664 0.16560842 -0.12273839 -0.3433605 0.1902316 0.44424802 0.030031703 0.23710407 0.5195461 0.35837132 0.26078942 -1.5406603 -0.046374302 -0.32510564 -0.73259467 0.4338938 -0.28216738 0.69845283 -0.91508627 0.64538103 -1.1685001 -0.14950515 -0.12502533 0.3555466 0.46939126 0.52140087 -0.6780362 -0.3007877 0.90755916 0.36497602 -0.1996983 -0.020271532 -0.7412519 -0.6105832 -0.3870633 0.2695573 0.18635365 -0.5512433 -0.37140945 -0.2751019 0.53322995 0.15770431 0.28888717 -0.95923346 0.5934084 -0.8776908 1.0934278 0.20315999 -0.46125898 0.53582275 -1.1872823 0.15502323 -0.22268295 -0.15044211 -0.56998414 -0.2012436 0.013658161 -1.7068392 1.3396583 0.40789452 0.24185002 0.30710596 0.5082776 0.26747876 0.54128575 -0.335826 0.5069227 -0.4154332 -0.58287364 0.5603297 0.5028662 0.44838512 0.0039589778 0.8442926 -0.756506
charge -1.1076053 -1.1269667 -0.2888288 0.5456823 -0.25562546 -1.4409524 0.86737007 0.9582556 -0.5820088 -1.6610254 -0.68442583 0.053503502 -0.64871186 0.6084336 0.20607613 0.41787276 -1.1723984 -0.9916488 0.60547304 0.31975773 0.40346935 0.46014297 0.21847326 -0.23144321 0.59374684 0.05986955 0.5685726 -0.005836466 0.18886717 0.80405277 -0.42859617 0.32189798 0.8239374 -0.8047205 -0.58093715 0.5728871 -0.59436274 0.1528338 -0.8655263 -0.24518996 -0.6912474 -0.6923985 -0.11432631 -0.39198193 0.7683626 0.3812474 -0.6478373 -0.9099963 -0.20092335 -0.25422978 0.05203737 0.010653934 -0.51623744 -0.73477566 0.63071954 0.22620696 -0.5666883 -0.5195785 -0.7369875 -0.54640204 -0.7421997 0.03425223 -0.8723145 0.2701215 0.14635246 0.59981555 -0.04469524 0.5193188 0.48408964 0.54947674 -0.8534118 0.1738141 0.014341345 0.56200296 0.8722606 -0.036610596 -0.33901304 -1.0487865 -0.4849177 -0.41670823 -1.2212656 -0.35488322 0.91339266 0.28301293 0.10009186 0.7237724 0.8734517 1.3350916 0.7850382 0.6618074 0.7814523 -0.36466098 -0.54820275 1.2480947 -0.3270832 0.359685 0.049022615 -0.11942255 1.3390139 0.067731105
python 0.036740724 0.24017231 0.27263886 -0.5346399 -0.7961964 -0.88527364 0.5454577 0.37001547 0.33679405 0.04082161 -0.85639185 -0.21016414 0.096259914 0.92804044 -0.4648823 -0.525156 0.18538624 0.2062392 -0.79080236 -1.4702485 0.6548971 0.652688 -0.51365364 0.44634923 0.37919796 -0.7760769 0.7675261 -0.4720354 -0.78384733 0.41831967 -0.30586034 0.62007713 0.15784709 -0.7090212 -0.9496173 0.66744924 -0.81022364 -0.4274027 0.72511643 -1.1048719 0.46131888 -1.2062759 0.067593426 -1.1913558 1.0343144 0.779197 0.15698059 -0.17728388 -0.7129819 -0.48585096 -0.34849754 -1.1347407 -0.37854102 0.061862595 -0.52881265 0.19798805 0.10395291 0.18235917 -1.5154804 -0.3425053 0.47581336 -0.8825542 -0.60180914 -0.2814021 -0.9209414 0.723012 0.2498825 0.41620725 -0.4721308 0.66663736 0.42143646 0.19656393 0.7332653 -0.5781167 0.5742791 0.20213802 -0.7001439 0.56359464 -0.11146894 0.68031716 0.1393756 0.32574633 -0.29043055 0.63959605 0.3736599 0.11283736 -0.15645704 0.4023548 -0.4294453 0.7944124 0.11410794 0.012603323 0.6137919 0.035399854 0.024863796 1.3021048 -0.5866297 -0.56318676 -0.41626412 -0.28798053
projet -0.30381107 -0.115405045 0.33578116 -0.90868926 -1.1713732 -0.5366626 0.41461763 0.4126531 0.0837268 -0.4963551 1.2604964 -0.22291401 -0.013313545 -0.23629211 0.16476192 -0.2529098 -0.63233113 -0.29712617 0.38683146 -0.10036442 0.60377413 0.09222783 0.33274788 -1.1305676 0.85948443 0.7432035 0.08011382 0.53088856 -0.24380471 0.42033297 0.10124997 0.6083048 0.32842535 -0.24892679 -0.13365458 0.44731307 -0.92650825 -0.33483675 -0.5506143 0.03397136 -0.38787764 -0.5076578 -0.15825468 -0.2649413 1.050717 0.18989338 -0.37287202 0.18390445 0.79289615 0.29078862 0.13167286 -0.61412907 -1.129944 0.2729509 0.6461529 0.7350007 -0.32049772 0.7979972 -1.4721329 0.31069285 0.31246844 0.7348489 0.092409 -0.4874427 -0.60721123 1.6318464 0.35343972 0.56975967 -0.48448876 -0.06058928 -0.5174404 0.4565002 0.23485701 1.1814684 -0.28954595 0.4369555 0.994987 -0.8344769 0.36133566 1.0196375 -0.6943254 0.50936145 -0.67014813 1.6781037 -1.2813023 -0.1534346 0.06618697 -0.1359001 1.0319014 0.18240692 0.16680537 1.0873859 0.045823477 -0.16825972 -0.23371549 0.20424755 0.4631407 0.32874733 -0.12634063 -1.3731428
angular 0.17909724 1.621131 -0.6198082 -0.3827403 0.47746202 -0.82094455 0.51671135 0.31030098 -0.75793135 0.6497321 0.028801156 -0.8989271 -0.25631738 -0.10134207 0.7361471 -0.55224377 -0.10732689 -0.7007325 0.13572916 -0.93618095 -0.64310235 -0.32281208 0.1912468 0.4571753 0.58450556 0.72228324 -0.31521958 -0.7824858 -1.1204271 0.13111295 -0.18620948 0.22141033 0.7324311 -0.20615475 -0.9552328 0.2037177 0.028171228 -0.2476869 0.4305999 -0.49851525 -0.1662426 0.18151304 0.30548993 -0.45590845 0.8659603 -0.44044012 -0.24002701 0.23641846 0.33917904 0.7649495 -0.11867385 -0.37394172 0.45933795 -0.3410648 -0.42223334 -0.66159767 0.46212354 0.7321246 0.1567104 0.10426498 0.31624255 -0.7243584 -0.06921658 0.101226635 0.36241925 -0.3364949 0.70047206 1.2375003 -1.5885706 0.68193394 0.19959117 0.8571468 -0.14211184 0.52352685 0.980263 -0.22070149 0.11298165 -0.31602114 0.8330017 -0.31695655 -0.46768045 -0.026065292 -0.6071522 0.9403846 -0.5422599 -1.133827 0.07532574 0.78274274 0.5589385 0.9108529 -0.6927462 0.30442557 0.1454468 0.13830672 0.5972389 0.7549785 0.3176843 0.46411824 0.19933963 0.23675252
javascript -0.4937033 0.2408122 0.5927501 0.076238915 -0.18229674 -0.60712683 -0.40307826 0.29995316 -0.019963522 -0.114081144 -0.9420696 -1.0915086 -0.70952374 -0.30477634 0.32277223 0.41486338 -0.025475103 0.38119474 -0.6581731 -0.21030444 -0.14215758 0.5883433 0.20317435 0.4256315 -0.2661251 0.5451088 -0.4257274 -0.9443353 -0.18862903 -0.004842491 -1.0786091 0.8269551 0.54867756 -1.2287014 -1.4973563 0.7054087 -0.30386865 -0.41736028 -0.44002905 -1.1347191 -0.5009916 -0.62518656 -0.27456835 -0.18442304 0.6120737 -0.24005726 0.3689614 -0.09351911 0.61610603 -0.25360888 0.19247743 -0.24549213 0.96888465 -0.50946826 -0.14193341 -0.9478405 -0.34281024 0.72938347 -0.23517628 -0.23308642 -0.237688 -0.56687516 -0.0077937013 0.09111685 -0.7360118 0.7519605 0.13272674 0.44180915 -0.666236 0.77612317 -0.48840904 0.60024476 0.09691247 -0.91823417 0.7224786 0.31341982 -0.16377021 0.13257031 -0.36575085 0.050987586 0.54969984 -0.21371752 -0.36284035 1.0843799 -0.6641877 -0.421009 0.3812843 0.23908862 0.10441507 0.05082581 -0.67253685 -0.45616153 0.6077687 -0.2731755 0.74668056 0.5007992 0.22413547 -0.3166722 0.61432487 -0.2560154
stack 0.07437225 -0.25861406 -0.34264597 0.413207 1.1679822 0.2381608 0.07435288 0.4010718 0.1796854 0.51600933 0.03597607 -1.1674376 -0.8154476 0.21095082 -0.3812212 0.094003975 -0.3807806 -0.5526552 -0.5857018 0.035541452 0.9275025 0.29286405 0.11273241 0.55133563 -0.04414912 -0.36864033 0.35627386 -1.1423022 0.41188076 0.3372974 0.16924106 0.24467324 0.90097046 -0.32125992 -0.038784813 0.594025 -0.5922199 -0.42681172 0.012160984 -1.0871682 0.9887455 -0.12948078 -0.047420632 -0.6897484 0.1969772 -0.042698592 -0.26579332 -0.07527288 0.90077555 -0.051460598 0.6796956 -0.6820074 0.60223484 -0.22943455 -0.54110396 0.89469767 -0.28147674 0.9651088 -0.58412516 0.40837616 0.483917 0.22127555 -0.039659683 -0.14741062 -0.71892285 0.32919726 0.4096311 1.0500293 -1.1185029 0.36876845 0.12131416 0.4679861 0.48513132 -0.19842158 -0.1253786 0.34454176 0.022743039 1.007562 -0.5226718 -0.2497659 -0.112301774 -0.1972907 -0.18461248 0.7613472 -0.19646777 -0.24737819 1.3454907 0.16653676 1.9256004 0.49860334 -0.17346992 -0.54423493 0.062555365 -0.15073918 -0.05256246 1.1089854 -0.6673307 -1.3374547 -0.6207448 0.6800266
qualit -0.2807611 0.7786131 -0.7876872 -1.0979514 -0.32898557 -0.5796157 -0.03432095 0.19469815 -1.4130929 -0.04076038 0.37543413 -0.66846246 -0.8775543 -0.123138554 0.10423228 -0.42985478 0.5388351 -1.6058772 0.44446746 -0.078375295 1.0091761 0.9968875 0.29491076 0.28813863 -0.51533866 -0.29982346 -0.40683767 0.102769904 -0.33455205 -0.86368537 -0.042594735 -0.6943306 0.16890895 0.8015923 -0.67647254 0.77570724 -0.17989147 -0.28201672 -0.66324395 -0.3622384 -0.8259266 -0.18862477 0.0698631 -0.0439762 0.072217345 -0.02255038 -0.7315541 -0.8183928 -0.58902496 0.40654844 0.20938008 0.5751684 1.1370955 0.116588175 1.5814562 -0.017726282 0.11276584 -0.20937948 0.0009894924 -0.46450812 0.48923507 0.55029845 -0.055811573 0.20064098 0.2547531 0.3679637 -0.42313123 1.0170904 -0.240621 0.70678407 -0.94038224 0.24359687 0.4819464 0.3333572 1.0264981 0.36504373 0.26535043 0.9339837 -0.19018847 -0.43167824 -0.453469 0.12697403 -1.4238788 0.19139235 0.44516015 0.45693222 -0.27266237 0.6792765 0.225217 0.08435163 0.45514718 0.87204176 -0.74612504 0.016825054 0.9879497 0.33858064 -1.1759523 -0.32941437 0.036884263 -0.59871775
produit -0.075632535 -0.023275023 -0.059709392 0.02448078 0.3211672 -1.0000532 -0.023842687 0.22258592 -0.10802699 -0.095063955 -0.23345304 0.22078465 -0.7207169 0.69564766 0.15520896 -0.7468874 -0.6972531 -0.505688 0.018788869 0.007974087 0.36746973 0.5299786 -0.022526337 0.24066855 0.013047253 0.62175024 0.49463612 -0.8040808 -0.30063978 -1.0548924 1.3347092 0.49946943 0.21834466 -0.7745357 -1.1485627 0.5056884 -0.2604269 0.56091076 -0.062302697 -0.12474593 -0.092377774 1.2725062 -1.0315992 0.31811827 -0.22007097 -0.17537473 -0.59243083 0.16080585 0.8588419 0.20033312 0.04766584 -0.6078039 0.3549366 -0.34906653 0.7717365 0.6742897 0.4713591 0.1491993 -0.800939 0.91601247 0.11261574 0.106117696 -0.5165636 -0.5513876 -0.05913782 -0.30837235 -0.087027304 0.8008435 0.7296603 1.0246402 -0.8624731 0.16911621 0.79277444 -0.15979026 0.44867894 0.5938015 -0.058663096 -0.026787076 -0.23274313 -0.64940953 -1.1820883 0.43693903 -1.2419991 1.1168511 -0.3889514 -0.124012515 1.4428433 0.7615099 0.2814458 0.0053031156 1.2137463 -0.1572751 0.0028434163 0.05169006 0.94248265 1.2157996 -0.73526156 -0.55375195 -0.09516867 -0.699343
data -0.22372583 0.50696164 -0.82788354 -0.25425863 0.9498056 -0.7839131 0.43098897 -0.113053784 0.10041134 -0.46631062 -0.3403861 -1.0546192 0.9373164 0.13694598 0.45352805 0.051659495 0.6472535 -0.6854128 -1.2823687 -0.24805383 -0.28492683 0.55020875 -0.2087432 -0.51124465 0.31473932 0.03128731 0.4624977 0.28922325 -1.0835912 -0.6376097 0.16951704 0.19102202 0.63519603 0.09646161 0.10052075 0.4484203 0.5955085 0.5872101 -0.6593801 -1.5357206 0.16036247 -0.3405661 -0.23147438 -0.91199964 -0.2210082 -1.0372671 0.5965715 0.25599146 0.31301406 -0.84488 0.382139 0.30089945 -0.29505295 0.6087568 -0.2717537 0.41752982 1.267387 -0.93881947 -0.3709836 0.3041614 0.4203226 -0.46293694 0.28669238 0.24066561 -0.9789941 0.09264303 -0.17298026 -0.37786934 -1.8328662 1.0200462 0.7199846 -0.1213991 0.6636702 -0.47896975 -0.3905742 -0.5586462 0.041637704 0.28612036 -0.3632875 -0.73959 0.10002186 0.9632752 -1.6029415 0.63192844 0.041639667 -0.4776549 0.50771236 0.69824034 0.61660516 0.38377732 0.9873843 0.25782475 -0.31154782 0.325196 -0.7911589 0.17404118 -0.17482477 -0.4244929 0.5482055 -1.1409303
comptences -0.39466235 -0.016195321 -0.5306523 -1.5842327 0.12603284 -0.66916555 0.3724091 -0.35243103 -0.06506905 0.45595315 -0.17508323 0.28270847 -0.69064385 -0.20524688 -1.2668805 -0.32328245 0.47049022 -0.425435 -0.45394063 -0.20449537 -0.028194433 -0.562979 0.5538428 -0.17808804 -0.51103544 -0.105485685 -0.39403933 0.60544306 -0.6556831 0.1420745 0.17127955 0.18528037 1.1698909 -0.14132237 0.10905922 0.52707434 -0.22732319 -0.9786584 0.042389777 -1.2005635 0.18109472 -1.7173712 0.29732922 -0.22080964 0.47545016 0.19287506 -0.77766156 1.1307352 -0.6141337 0.74712723 0.34974024 -0.66456854 0.3541982 -0.07975263 -0.5257094 0.59963036 0.81439644 0.07548052 0.395362 0.86141646 -0.49810046 -0.6394392 0.4951244 0.40609732 0.042447463 1.0918822 -0.25231302 0.5665838 -0.60015845 0.6299647 -1.1496596 0.9263215 -0.614118 -0.43518338 0.89593977 0.13828303 -0.35709944 -0.99382234 0.33250055 -0.65125746 -1.5368406 0.5103957 -0.34031475 0.7165081 0.14299136 0.3823009 0.30376837 0.1307288 0.77500564 -0.42523396 -0.2989765 0.12827508 -0.43241513 0.34750146 1.1137141 0.16962007 -0.26193777 -0.35208347 -0.16976973 -0.64249057
dveloppements -0.8699795 -0.030165525 -0.22464216 -0.49832445 -0.49131373 -1.436109 0.37487832 1.2156554 -0.58151495 -0.7000144 -0.10999244 -0.61242557 -0.818411 0.031594858 -0.4735467 -0.0013424248 1.3562388 0.36820683 0.3365974 -1.3957322 -0.34422797 0.035120595 1.107142 0.6804873 0.25889507 0.37472433 -0.49522245 0.16441548 0.10039292 -0.95191693 0.19232559 0.58215135 0.062969 -0.28044295 -0.24554138 -0.19034904 -0.3564885 -0.55280936 -0.8172932 -0.40063408 0.43346992 0.14744297 -0.41151056 -0.2993914 0.23816337 0.1196988 -0.0152232535 0.49852514 -0.79202235 -0.86035365 -0.36651155 -0.80050087 -0.1102223 0.1838534 0.30812702 0.7900866 -0.6833933 -1.1231112 -0.67099977 0.13566577 -0.026761232 -0.84260714 1.4141537 -0.03948313 -0.6223724 1.017939 0.046602562 0.8110988 0.18422915 0.39692506 1.1404055 0.13468032 0.7723161 -0.00016318212 0.7061564 0.0659847 0.026720798 -0.09947702 -0.36161292 0.24338895 -0.5192252 0.19724506 0.738552 -0.023452895 -0.104556814 0.7990853 1.1220456 0.15278032 1.1681356 0.7387247 0.75121397 0.7314022 -0.96971047 0.6198738 0.52103084 0.7422449 -0.72552943 -0.67032653 0.4314824 0.8960038
plus -0.71682423 0.050549816 0.9062866 0.08429805 0.005505264 -0.07889428 1.2481344 0.16687644 0.26862475 -0.33586788 -0.36654514 0.555843 -0.5279262 -1.8666862 -0.3757225 -0.08698077 -0.5950493 -1.1666582 0.33023936 -0.39603597 -0.48726746 1.2244143 -0.10148854 0.6735668 0.9286523 -0.054402873 -1.4037205 0.06643874 -1.66366 -0.51423895 -0.22034357 0.8157916 -0.30140722 0.21255101 -0.31510037 1.4436578 0.29196358 -0.33273584 -0.30044544 -0.7189543 -0.48327896 -1.1952978 -1.1213914 -0.48323587 0.65812296 0.78580195 -0.04472645 -0.6862327 1.0310136 -0.32750818 0.2718305 -0.13837032 -0.703382 -0.70470357 -0.4572814 0.20921758 -0.071058236 -1.3657265 0.7460716 0.13094954 1.0093656 0.3964072 -0.20421278 -0.042191405 -0.92264694 0.29492438 -0.046468303 0.6202781 0.26132193 0.53865445 -0.49366078 0.83600205 -0.14576055 0.060780972 0.41021425 0.32569844 -0.029686546 0.57547516 -1.2450622 -0.2664615 0.20867376 -0.87671125 -0.64560395 0.8552669 -0.51641154 -1.1745309 -0.4237038 0.25030676 -0.04102748 -0.8531382 0.5641887 0.81314725 0.14125934 0.32070842 0.8789605 0.3956253 -0.053137116 0.8033244 -0.28695947 -1.0785637
uvre -0.2789993 0.9240817 -0.4474117 -0.11729911 0.40158722 -1.2205762 -0.7194394 1.4696773 -0.6348401 0.046372462 0.60942495 0.26861826 -0.34466285 0.17091434 0.41969806 0.46802917 -0.3619757 -0.82431424 0.5719453 -0.02290962 0.18831094 1.529731 0.54147947 -0.35805708 -0.19269596 0.29250312 -0.58271784 1.0961013 -0.6846425 -0.29806843 1.324581 0.23654407 1.4250554 -0.26232263 -0.18500273 1.2416941 -0.029061861 0.023233382 -0.5890907 0.7601955 -0.35639864 0.20167589 -0.085586004 0.15205121 -0.27300954 0.86300844 0.28715688 0.15201418 -0.060374085 -0.07712691 0.28758454 -0.13601568 -0.15523583 -0.4708627 -0.03686979 0.24053633 -1.060297 0.12665148 -0.49103904 -0.606529 0.22028825 -0.6270118 -0.07335487 1.1900017 0.17273575 1.0802947 0.59280264 -0.06681339 -0.9664923 0.5547573 0.31988215 0.7640104 -0.11908451 -0.5743499 0.2916196 0.15152577 0.19347754 0.21717441 0.06548035 0.11549832 -0.3754688 -0.6625687 -1.055377 0.7529458 0.47390726 -0.3802997 0.06626638 0.040878937 1.5729321 -0.46446472 0.7282482 -0.14419772 0.68613064 0.27122384 0.72968704 -0.04888522 -0.16921023 1.0925832 -0.2702043 -0.5481927
devops 0.50000167 -0.2505995 0.39537188 0.44193617 0.08063029 -0.40974244 0.47162402 0.46205243 -0.83333284 -0.071102135 -0.4990491 0.21646746 -0.513913 -0.24479376 1.3281463 -0.07344503 0.16573943 -1.6778476 -0.6876081 -1.0447686 -0.049348094 1.128524 -0.4972357 -0.61646754 0.20146017 0.23188247 -0.44330063 -0.7763806 -0.22359267 0.02541357 -0.07317394 -0.5555059 0.61712116 -1.1935482 0.98720604 0.22490844 -0.09578331 -1.2998729 0.6187067 -1.3729558 -0.069339715 0.854947 -0.11320987 0.122722566 0.589162 0.004467183 0.2327078 -0.14787862 0.49532634 -0.2542603 0.31882054 -0.8367395 -0.055057477 0.056114845 -0.20624906 -0.014436362 0.52462536 0.27599522 -0.3518757 0.10821557 -0.56931275 -0.20704365 -0.691466 -1.1038964 0.3596684 0.7605135 0.6015265 -0.16634874 -0.024620762 0.261811 -0.11599385 0.18674347 0.2158802 -0.4101189 0.10011746 -0.20250227 0.37386948 -0.19512281 0.9523792 0.11484972 -0.06720732 0.43975753 -0.74675006 -0.031532615 -0.9734676 0.26675978 0.14804888 0.49306458 1.8489624 1.197016 0.512464 0.80932546 -0.10972718 -0.056119926 0.048578642 0.9531184 0.14777985 -0.084563196 0.42957094 -0.9327143
cadre -0.79241145 -0.19205855 1.1299168 0.729278 -0.38822234 -0.9712363 0.089558944 0.34157386 -0.9356713 0.328206 -0.38195497 -1.2235031 -0.048876684 -1.2634463 0.41658348 -0.5099957 -0.3601928 0.12801093 1.0741781 -1.1576298 0.5341426 1.1293818 0.48614773 -1.1626962 0.4969171 -0.44597772 -0.08029012 0.5720133 -0.5625109 0.55074704 -0.15894896 0.55270565 0.03725016 0.24905151 0.06776722 1.3083439 -0.50393254 -1.0173968 -0.6008849 -0.7301787 0.4036121 -0.48005506 -0.02333908 0.23966503 -0.7825896 0.31627715 0.31584314 0.65773755 -1.0475103 0.10362009 -0.4947757 0.25453442 0.0519689 0.22707875 0.66793245 0.34212777 1.3161986 1.3602369 -1.0751764 -0.21448582 -0.12673873 -0.5850614 -0.2234704 0.38617316 0.390671 1.1764215 0.43792224 -0.14518808 0.3782148 0.77826756 -1.1517642 0.25718832 0.4205795 -0.13153528 0.2500474 -0.8528517 1.3785815 -0.3057606 -0.93684524 0.3718727 -0.83336896 -0.4549575 -0.7965887 0.06984401 -0.5031361 1.2193962 0.0759101 0.786893 -0.80269134 -0.07969118 0.07579014 0.21540694 -0.9104832 0.41407037 0.95075905 -0.5591613 0.28374693 -0.09082071 0.24270833 -0.089236066
assurer 0.015597667 0.16610824 0.6191475 -0.6404899 -0.05793206 -1.17833 -0.7443192 0.14767843 -0.8282371 -0.46906132 -0.704815 -1.0035557 -0.02848374 -0.13408424 0.40680817 0.5344893 0.01101082 -1.0052677 0.11405392 -0.8172663 0.9013444 -1.2515181 0.10578975 0.028327908 -1.0012647 0.16764523 -0.020255342 -0.13849023 -1.3696785 -1.1843989 0.86917055 0.08069266 0.040770866 0.8307189 -1.0879531 -0.2708784 -0.39126143 0.5936683 -0.859272 -0.28840774 -0.12545428 1.036372 -0.29413342 -1.4969863 -0.023353275 -0.08048281 -0.13624628 0.46016145 -0.6184647 0.0055942237 0.18433994 -0.28956357 -0.4842622 0.7124061 0.18122554 0.5586302 0.08161141 0.4682668 -0.6563935 -0.7787876 -0.10985356 -0.26801404 0.18835834 0.34428957 0.18334095 0.17753832 0.56405485 0.1783535 -0.29879102 1.5506252 -0.48658106 -0.28010064 0.56041133 0.34306908 -0.1470195 1.5631745 -0.13928 0.008847606 -0.18905728 -0.6212167 -0.21298018 -0.30072042 -0.9341615 0.5610774 0.029228097 -0.28369978 0.975513 0.056984518 -0.5496218 -0.37915623 0.8885272 -0.6217401 -0.514603 0.8770821 1.226177 0.50893867 -0.20595877 0.12804224 0.69960445 0.11827858
agile -0.0688904 0.13728899 0.18356685 0.3723603 -0.74119264 -1.0848696 0.7770462 0.14407812 0.026437996 0.47609812 -0.47077173 -0.31151345 -0.9386107 -0.21128826 0.032641206 0.17634375 -0.09712339 -1.2398326 -0.29700044 -1.0270646 0.69088554 1.3889213 0.24368499 -0.57019186 -0.6510771 -0.11664547 -0.271059 -0.28716218 0.41663787 0.74110055 0.44813818 0.49263018 -0.35558215 -0.6681603 -0.35475546 0.027776815 -0.9235871 -0.42043033 -0.7925524 -0.9547763 -0.2695668 -0.5087106 -0.69384575 0.069959834 1.2842001 -0.04350775 -0.7457253 -0.25240582 0.83229494 0.40530607 0.58153427 -0.3652371 0.50518006 0.13352455 -0.4801342 -0.38452637 0.037140753 -0.19326347 -0.24172385 0.34674203 0.78079796 -0.790231 0.34090304 -0.46062285 0.8744801 0.73114353 0.2650242 0.3783365 0.4950197 0.6768282 0.15549675 0.0072884574 0.3494747 0.028428208 -0.4654837 -0.076065265 0.84155536 0.19439854 0.48890957 0.28210914 -1.420237 0.12767056 -1.0150005 -0.8638789 0.46679217 -0.41710234 0.84168243 0.54893637 -0.0027242713 0.35372218 1.0125588 -0.21124619 -0.8217603 -0.068306826 0.4578518 0.06831628 0.08211859 0.07153445 -0.533581 -0.80120325
exprience 0.6210111 0.16716409 -0.39269653 -0.15272902 -0.9201512 -1.3198725 0.5558501 0.5905836 -0.17133138 0.6795815 0.5490359 -0.833304 0.22522427 0.6935898 -0.19837514 -0.12730382 -0.19604662 -0.93874824 -0.703862 -0.82234484 0.1903949 0.38280284 0.20957665 0.5701235 0.706909 0.026780741 -0.661085 0.6842177 -0.3697255 0.35615104 1.8116597 0.7952189 1.0187012 0.011347833 0.11563142 0.40800577 0.6907025 -0.0073224083 0.056726195 -1.5652299 -0.073373444 -0.38944763 0.30289114 0.82545775 0.16322829 0.08946638 -0.18350789 0.7082212 0.40694684 -0.8077637 -0.72548294 -0.54732895 0.8280346 -0.5166706 0.5454279 0.2226373 -0.27880812 0.42170602 -0.59690994 0.62906134 0.26508006 -1.2582133 0.45514902 -0.4859934 -0.67903006 -0.7959087 0.33781552 1.243038 0.16676313 -0.0059187254 -0.73589736 -0.2108658 0.3682941 -0.19872624 0.5894119 0.20345551 0.16202112 0.714546 -0.12649317 0.29990938 0.11279603 0.9515471 -0.9627102 0.8266242 0.193461 0.3087125 0.14190103 0.07618441 0.23400053 0.41038233 0.3854148 0.6489246 0.13562179 0.5149336 -0.35384515 0.095179595 -0.35258982 0.44971067 0.75401336 0.38275197
cloud 0.34522614 0.92100054 -0.21611734 -0.17881614 0.4092749 -1.0583638 -0.13818003 0.6859038 -0.40977216 -0.63749087 0.5313238 -0.39139208 0.31215936 0.34836707 0.2053333 -0.2817338 -0.79506373 -0.6416909 -0.44918445 -1.4597527 0.09008273 0.61493695 0.12918034 0.80983216 -0.7522032 -0.6176537 -1.3718759 -0.46807513 -0.120823584 -0.610825 0.3134615 -0.026821194 0.37880754 -1.0865529 -0.02241156 1.3856604 -0.67801255 -0.73066014 1.1308702 -1.2574966 0.955948 -0.3598236 0.28820804 0.5903326 0.5519778 0.17156307 0.13091974 -0.27397135 0.5742501 0.056337755 0.38909453 0.97113365 0.58763134 0.9433044 -0.15391485 0.1744093 1.6989504 0.10599249 0.53973407 0.30963713 0.94089293 -0.1164818 -0.5780512 -0.5239965 -0.78402865 0.38968232 0.9081478 0.09489513 -0.21805294 1.0426576 0.030040286 0.17947626 0.040847592 0.42825055 -0.029873049 0.042678844 -0.5407093 0.40848547 -0.14276163 0.30032846 -1.3613737 0.049580973 -0.26909614 0.7166521 -0.44071224 0.40027606 -0.32236567 -0.21409164 0.48747593 0.5622869 -0.2866343 -0.35646346 -0.96685845 0.03773664 0.25657666 0.8554614 -0.52148825 0.43978602 -0.5753728 -0.6877325
unitaires 0.857459 -0.50002927 0.23310061 0.42945385 -0.070393644 -0.46153197 1.1449314 0.4280439 -0.6730645 -0.4596902 -0.17511311 -0.35049072 -0.1802707 0.0759477 -0.65341514 -0.39789557 0.2826868 -1.0639373 0.13851684 -1.4852002 0.50608915 0.7557779 1.26769 0.7298453 0.25620186 0.52732235 -0.058496058 -0.015233896 -0.45476097 -0.8588128 1.1355791 -0.70171237 0.45761567 0.26480973 -0.44295365 0.52214545 0.29160875 -0.6084351 -0.24329275 -1.6240236 0.13756163 0.26349792 0.6589578 -0.20424248 0.36146116 0.74972683 -0.7571843 -0.18791112 -0.24245667 -0.8321629 0.6677805 -1.0362023 -0.33046755 -0.02264118 0.3384101 -0.06363614 0.21114539 -0.69095594 -0.54103637 0.50163335 -0.045354426 -0.82331276 -0.30405197 0.16073202 -1.0649314 0.4549671 0.26965472 0.6358943 -0.003174392 0.508406 -0.52162904 0.35734913 0.8694927 -0.193458 0.4693016 -0.55951154 0.317515 0.091723055 -0.7814714 -0.5206529 -0.11047407 0.3116116 -1.3629304 -0.10862232 -0.4033149 -0.6411944 0.3106765 -0.5745836 -0.40038264 -0.20060496 0.19929844 -0.47110826 -0.72928375 0.016284809 0.8754102 0.5531269 0.34050417 -0.04768609 0.003615084 0.20589924
front 0.32869998 -0.051001195 0.07869956 0.27689916 0.1481244 -0.7679965 0.41278595 0.58490187 -0.15622295 0.24452989 -0.62282485 -0.57503915 -0.7036271 0.114916205 0.37301964 0.5336781 0.15178072 -0.7679161 -0.46699739 0.2962613 -0.22006337 0.4851513 -0.0006683487 -0.7107321 0.29472426 0.25801784 -0.6550979 0.34135833 -1.3042645 0.16420619 0.55751836 0.52701205 0.9662635 0.4887934 -0.28614694 0.25301406 -0.17596833 0.21000075 0.36610276 -1.1100413 -0.72401214 0.13470614 0.019563345 -0.6777717 1.1032926 0.47472468 -1.2478827 0.7691686 0.33760387 0.7375285 -0.6736458 0.21441765 1.1467971 0.34120706 -0.047468968 -0.8115736 -1.1325344 -0.3558773 0.79155797 1.2319022 0.4305176 -0.30913693 -0.70689774 -0.4293552 -0.40208948 0.029231526 -0.5343474 0.5216963 -0.4143991 0.8981 -0.5806871 -0.1244434 1.1734977 0.60472184 0.046825472 0.18075188 -0.35768986 -0.09027165 -0.41577995 -0.40108165 0.70244616 0.08072572 0.16297792 1.0303891 -0.8039482 0.11843879 0.50193214 0.7051518 0.9477162 -0.4741381 0.23319468 0.47014666 0.915101 -0.25705618 -0.16845521 1.1544167 -0.63483274 -0.097331524 0.6727314 -0.33161318
suivi -0.6476506 -0.006470636 0.09354237 -0.41753197 -1.2736361 0.33856592 -0.47571823 0.53460836 -0.40389594 -0.40157336 -0.58113694 -0.08982947 0.079308264 -0.7374496 -0.6204742 0.51199347 0.6067533 -0.5437045 -0.3090366 -0.76727086 0.68604326 -0.054576654 -0.116448894 -0.04209703 0.30046174 -0.09403806 0.6263381 -0.68634623 -0.50423414 -0.72900754 0.40047 -0.2816338 0.7618186 0.6539577 -0.07964685 -0.58138895 -0.09664088 -0.6547561 0.07069539 0.03773701 -0.21024394 0.39467543 0.70747185 0.07537564 0.38356346 0.093641214 1.0745413 -0.3479453 -0.14295508 -0.73116857 0.44121784 -1.2143732 -0.4784252 0.39937356 1.2707936 0.07422336 -0.37768838 -0.40806106 -0.8362255 0.7970553 -0.16855127 0.31892186 -0.3140193 0.64478016 0.5209036 1.0932719 -1.1601114 0.32447833 -0.7186974 1.6795236 -0.6876718 -0.011430117 0.5690294 -0.62548816 1.1712118 1.1101844 0.48496836 -1.1497288 -0.44938588 -0.18259671 -0.3789734 0.78961146 -1.1534572 1.705546 -0.2530812 -0.38406676 -0.48254228 0.75557435 0.6058269 0.32577574 1.0146793 -0.32991984 -0.43610233 0.6823959 0.7002305 0.2641414 -0.22433859 0.61676013 0.4764042 -0.39474663
dveloppeurs -0.21257885 0.38830146 0.5848217 0.09293549 -0.6777366 -0.849259 0.3892978 0.4244859 -1.0965071 -0.06425062 -0.7272225 0.3629464 0.6117439 0.24623248 0.42650497 -0.014834028 -0.19800736 0.28900355 0.6182793 -0.7412359 1.1566864 -0.06263732 0.52106464 -0.8390824 -1.001363 0.47279254 -0.047795914 -0.3139216 -0.08563586 0.3194459 0.19381261 0.78981435 0.7190836 0.17186467 -0.673212 0.10916102 -0.41505498 -0.13679573 0.8968113 -1.1490357 1.0497389 -0.044162247 0.18906121 0.55153376 0.100128435 -0.1263921 -0.113401115 -0.06463734 0.09148659 -0.1947106 -0.9926716 -0.4298077 -0.22623964 -0.2912795 0.1893442 -0.06743556 -0.31512305 -0.07994798 -0.24281204 1.4489691 0.738111 0.083645746 0.5964528 0.033243302 -0.5020346 1.0503292 -0.03489997 0.10754665 -0.5762368 0.4568191 -0.8677608 0.41337466 0.6095791 -0.658105 0.80459607 0.091465145 -0.0827696 -0.26149467 -0.28912863 -1.387639 -0.40833053 0.5397237 -0.087876625 0.9422106 -1.6382694 -0.33199465 0.9494947 0.10717961 1.8733399 -0.5022245 1.0169289 0.3116259 0.062481478 -0.31144217 -0.2535149 -0.51900995 -0.6653677 -0.0623573 0.3978904 -0.36154732
logiciel 0.0009953714 0.6208092 0.55846804 -0.10074202 -0.25779647 -0.88707536 0.8871512 0.99849504 -0.16833797 -0.49511772 0.03984534 0.21046062 -0.6311719 -0.07390266 0.20400685 -0.08548232 -0.051924393 -1.0323026 -0.04285287 -0.623806 0.31541136 0.11962357 -0.27990147 -0.67803967 -0.35153368 1.220353 -1.5218486 0.18776464 -0.32737377 0.09216438 1.2019476 -0.27184936 -0.26852828 -0.38405874 -0.29708192 0.11842925 -0.24606855 -0.98923326 -0.7166684 -1.4949827 -0.4044158 -0.81700635 -0.5882127 -0.33876273 0.40861067 -0.24464816 -0.7174232 -0.97065634 -0.13163742 -0.1539584 -0.007987028 0.8490531 -0.50240386 -0.1716314 0.12614053 -1.3197132 0.118895136 0.25703067 -0.78154784 1.0083474 0.44274518 -1.20576 -0.544058 -0.47430977 -0.27814046 -0.3791963 0.79471725 -0.19553238 -1.210505 -0.027150191 -0.54247993 0.047194686 -0.5000171 0.4779091 0.807898 -0.3704319 -0.031917725 0.74593836 -1.0532835 0.4244857 -0.9981997 0.77707684 0.27825812 1.4799871 -1.0547745 0.23131299 0.40798897 0.7346858 -0.25246447 0.12315172 0.79205537 0.09831759 -0.5644616 -0.5555635 -0.23568715 0.18755932 -0.852956 0.3951293 -0.10285261 0.41514978
symfony -0.81373435 0.61052096 0.7809166 -0.6270508 0.5743656 -1.0409399 0.11033269 0.15779504 -0.87218136 -0.8569906 0.2039802 -0.55681217 -1.1524674 -0.02787591 0.56237495 -0.521712 0.0023376194 -1.0175588 -0.25953498 -0.8057984 0.3149939 -0.0010086319 -0.54490685 0.7687486 0.5986963 0.63333684 0.01162949 0.7079774 -0.3266828 -1.1017389 -0.22383761 0.22814947 -0.3531352 -0.0016991444 -0.61696446 0.97997445 0.084379785 -0.8487252 1.2768724 -1.1519494 -0.42183074 -0.52209586 0.22535206 0.5761173 0.2196186 -0.11088036 -0.5824362 0.28950956 0.6896213 0.30619347 -0.6616768 -0.67710733 -0.0636547 -0.19835325 0.5102686 0.07553742 0.076335184 0.63648474 0.21049808 -0.23734784 0.32022318 -1.0433718 -0.23713557 0.35834402 -0.43049705 0.7771269 0.12942773 1.1580702 0.05585684 0.49350178 -0.6951123 0.91133356 0.68343943 -0.78431153 0.43331206 0.4977623 0.11731292 -0.35259816 -0.35886607 -0.7669349 -0.41750643 0.6753647 -0.6509033 1.7246771 0.11883868 0.014800738 -0.0644904 0.83169353 0.73665804 0.55776787 -0.061423108 0.3136651 -0.11015472 0.03426631 0.5566184 1.2625062 0.3205662 -0.119133145 0.34913385 -0.04397122
besoins 0.18881743 1.2517195 -0.5643733 0.22025323 0.31169012 -0.37470427 0.8255931 0.9025662 0.19233765 -1.5936261 0.272797 -0.3354326 -0.56104606 0.95017225 -0.44934782 -0.35999298 -0.1309309 0.2622826 -0.35361516 -0.833747 -0.37797448 -0.12171426 0.90457314 -1.0330511 -0.41007206 -0.5696168 -0.21978289 -0.16771951 -0.14913824 -0.19595608 0.651324 -0.37313786 0.27281538 -0.27064276 -0.3009954 -0.5576508 0.6723064 -0.008619377 -0.16419989 0.06075206 0.737559 -0.47224 0.0056552384 0.2280334 0.88492274 0.16547172 -1.0795065 0.50015247 0.24754317 0.38340792 0.7100039 0.39080846 -0.38476685 -0.6380719 0.08189675 0.23610018 0.07542662 -0.2893174 0.06968851 0.48252618 0.21634968 0.61630213 0.178696 0.62201583 -0.33789808 0.19285914 -0.3725867 1.0478383 0.17524138 0.5429729 -0.9936903 -0.27036542 0.31129408 0.17758061 0.71540385 0.12812813 -0.03388708 0.61967784 -0.9901465 0.10834745 -0.38014802 -0.96995497 -0.8159479 1.0385242 -0.6534167 -0.04098867 0.60681635 -0.34414488 0.49520305 0.37044358 1.7951602 1.1335146 0.53108424 0.5597006 0.74260855 -0.52240735 0.39884588 1.0558331 0.16943349 -1.5130454
backend 0.05104564 -0.48078042 0.29316965 0.12484613 0.4146324 -1.0301319 0.8714905 0.08904123 0.069193535 -0.92915124 -0.3622181 -1.3884368 -0.3224852 -0.6400443 1.148034 -1.1515478 0.47736713 -0.79443127 -0.11552451 -1.6650444 -0.04219147 -0.120991066 -0.72440463 0.39799693 -0.10087616 -0.32128203 0.267239 -0.48552483 -0.012030587 -0.069411054 -0.18991815 0.79449224 0.14761315 -0.91910744 -0.6441246 0.9272616 -0.058835454 -0.7253166 0.52224565 0.79156125 0.5401454 -0.34037584 0.47922415 0.4608473 0.25939912 0.28340888 -0.2681954 -0.35970417 -0.48138735 0.4916297 -1.2347037 -0.18331431 -0.38055772 0.6218724 -0.5303997 -0.30637094 0.16548282 0.06324405 -0.7518551 0.6553284 0.0017037776 -0.20336315 -0.0617605 -0.8412387 -0.18575205 0.5901319 0.66048795 0.42088917 -0.3561241 0.39006034 0.18060136 0.38103038 0.7349421 -0.7891257 0.75352436 -0.77420247 -0.009391158 0.05884368 0.030158738 -0.70541674 -0.93107265 -0.24522923 -0.48367107 0.7460943 -1.0209329 0.7588247 0.020938644 0.84948385 1.4747485 -0.4851759 0.60018337 -0.32797396 0.48891094 0.158832 0.004106216 0.063088164 0.4192579 -1.6502008 0.40591598 0.18353894
informatique -0.052114118 -0.14838216 0.048618488 0.31175712 -1.176553 -0.6366478 -0.19477473 0.38650373 -0.24048518 0.9239523 0.1077067 -0.21450864 -0.016511202 -0.268634 0.7910165 0.28836778 0.060867827 -1.3489815 0.48821357 -0.8074312 -0.019937932 0.031310767 -1.0481447 1.3203105 -0.9410443 0.76774025 -0.76704556 0.39674336 -0.6452995 0.55307823 0.4677437 0.3207307 0.16814081 0.47070327 -0.39998448 0.09548198 0.2577295 -0.1875707 -0.192737 -0.88305026 -0.1676705 -1.1834434 0.5878938 -0.073976554 0.85932153 0.9386914 0.367292 1.133951 -0.47298634 0.28102925 0.4622059 -0.5271719 0.63566965 -0.56599927 -0.3035016 0.55694103 0.22856295 -0.6460099 -0.44757333 -0.17226307 0.2608993 0.20158294 0.08783431 0.30072764 -0.22169156 1.0266213 0.03233861 1.0158643 -0.55068034 0.757715 -1.2030689 -0.27700728 -0.114938915 -0.18743166 0.97784805 0.85669 0.070969015 0.38713855 0.3337953 -0.4118843 -0.18366908 0.089080706 -0.44607106 1.0871325 0.55819196 0.29233265 -0.28841504 0.25295836 0.5849536 -0.036984242 0.43697643 0.5176888 -0.7019553 0.47588462 -0.6734038 1.1897664 0.33639446 0.7625296 0.15780228 -0.037698157
connaissances 0.25660157 0.13202113 -0.564885 -1.0962238 -0.6862313 -0.2444997 0.5085229 0.27263305 0.45822224 -0.05724527 -0.44946134 0.1768135 -1.4583313 0.25071058 0.102607906 -0.5376251 0.029695889 -1.3093469 -0.7613942 -1.155086 0.70140094 0.16887234 -0.4747603 0.8512383 0.051783364 0.4685001 -0.6976867 -0.16160789 -0.7583405 -0.42291448 -0.5867412 0.6901056 -0.3519511 -0.04249869 -0.6553525 0.30339986 0.6979094 -0.045918517 -1.0272472 -1.3399571 -0.14671874 -0.377519 -0.46116048 0.2838748 -0.16684254 -1.0926772 0.20670159 0.9579897 0.006661205 -0.033132497 -0.06964124 -1.5399605 0.2969407 -0.09174848 -0.028956061 0.98388225 -0.20331505 -0.79891884 -0.09378823 0.07904162 0.44539508 -0.24225861 0.09990744 0.31418476 0.44746026 0.8520075 0.4942804 0.27572906 -0.85616034 0.4900949 -0.58165956 0.9173678 -0.0072610048 -0.5042808 0.31183076 0.3313121 -0.40873215 -0.72177744 -0.2073937 0.81649435 0.43610215 0.33328262 -0.94448566 1.279631 -0.8170409 -0.30868816 -0.16429459 0.3493006 0.07544419 1.2720486 0.657369 0.22090584 0.09436123 -0.18143193 -0.15658186 0.75286317 0.8801115 0.65045214 0.59995925 -0.3689086
ralisation 0.4730081 -0.018954985 -0.21279864 -0.49967903 -0.6763199 -1.220573 -0.04270627 1.2656454 -0.16028914 -1.1655219 -0.2198392 -0.7275924 -0.8217435 0.053475965 -0.07444248 0.4988102 0.4679404 -0.44711536 -0.1802194 -0.62473726 0.90928227 1.877169 0.0069373036 0.12876128 -0.30122367 0.48309597 0.23058756 0.7740148 0.10870476 -0.42706606 0.686199 0.5629418 0.2878031 0.09755243 -0.61704755 -0.8731044 0.48793665 -0.014088262 -0.907033 -1.0677975 0.74873304 0.1247422 0.26154095 0.25100532 0.7216298 0.16897465 0.36911568 -0.7702528 -0.39049822 -0.09325909 0.01942197 1.0848334 0.42640102 -0.3827302 0.07289743 0.06166757 0.017782092 -0.61155254 -0.2559468 -0.025959484 -0.3000654 -0.50002885 -0.7548355 -1.0844904 -0.025661528 -0.37356105 0.7297661 0.5329438 -1.4886405 0.641292 -0.41094396 0.23764573 0.8067174 0.36579016 0.24328256 0.55862373 1.3650187 -0.11013978 -1.567368 0.25540498 -0.046489663 0.17842272 -0.8477571 0.93269366 0.8907502 -0.76775295 1.4775192 0.30462986 -0.65322363 0.65616494 -0.6221834 0.15882944 0.45340395 0.86605084 0.71874136 0.4035556 0.036923468 0.2712005 -0.56710196 -0.20126572
larchitecture -0.0756272 0.62820745 0.45438144 -0.27893922 0.029853715 -1.0736108 -0.1423035 1.0770006 0.15805352 -1.4268636 1.173061 -0.4062975 -1.1501981 0.14247034 0.60185176 -1.2920644 -0.78917587 -0.7501304 0.040049184 -1.1403354 0.91083723 1.0452656 1.3422883 0.27543604 -0.3543463 -0.006629566 -0.60390085 -0.44976524 0.39679432 -0.85542065 0.16116427 -1.1459401 0.38143405 -0.49785492 0.02415533 0.10395447 -0.27161002 -0.060617667 -0.5134755 0.4997046 0.041513182 -0.3663752 -0.75984406 -0.5202067 -0.24068639 0.47634283 -0.17285678 -0.89725125 -0.38328427 0.6189763 -0.3905522 0.22941102 -0.5267797 0.59899086 0.53418493 0.37382537 -0.07702116 -0.65054685 0.19483586 0.5222086 0.22306094 0.41471583 -0.3140259 0.2022458 -0.44202983 -0.053013995 1.2143056 0.019026514 -0.9995414 1.040541 -0.6398968 -0.22088338 -0.22452933 0.5393161 0.40295082 -0.27433288 -0.21901815 -0.46922296 0.43912536 -0.2975347 -0.8152189 -0.5510551 -0.37035963 1.1948866 -0.9790396 -0.79261005 -0.30540872 0.28754434 0.16576043 0.20605278 0.442602 0.29568267 -0.5824551 0.7323726 0.68420005 0.65810347 0.10959538 -0.27870697 -1.4732431 0.289825
frontend -0.43835643 -0.18951455 -0.7926572 0.33477557 1.0085177 -0.3588433 -0.5834299 0.73437643 -1.2224183 -0.10023451 -0.051820714 -1.3105869 -0.65248686 0.0040782103 0.40372983 0.17605542 0.078853555 -0.357262 -0.24078166 -0.5242067 -0.26844198 0.057034295 -0.44431368 0.1638739 0.055987813 -0.22591497 -0.4312506 -0.7338031 -0.4015628 -0.19755758 -0.26850772 0.3201661 0.07251572 -0.9499968 -1.0347306 -0.004068809 -0.47411838 -0.16924907 -0.6254569 -1.2453219 -0.7720821 -1.4018837 0.13488603 -0.1699294 0.46640357 0.37912086 0.19731659 0.35703692 0.7701215 0.15132095 0.8173396 -0.4459634 0.9241248 -0.95715487 -0.53516084 -0.26586437 -0.27051082 0.31097156 -0.5163133 0.4965695 0.7636909 0.10583323 -0.6402609 -0.8719738 -0.541565 0.043799113 -0.49302778 0.6969546 -0.013639325 0.0748441 -0.7535752 0.09432222 0.48452002 -0.50280714 1.0657429 -1.2604525 0.50575775 0.22448538 0.7886273 -0.33260632 -0.31004336 0.1289379 -1.0942631 1.0088171 0.052346963 -0.5388697 0.646483 0.6828262 0.2050957 -0.9897701 0.36025918 -0.3551316 -0.15484238 0.0037763924 -0.14166248 0.6899958 0.4515904 -1.3094043 -0.07766793 0.07077347
raliser -0.2455221 0.2434279 -0.8903232 1.3269112 -0.49669674 -0.5840612 -0.15576941 0.36541772 0.0527342 -0.7504756 -0.26079807 -0.9453955 0.3713361 0.31804386 0.09798495 0.48090658 0.052213874 -0.8581575 -0.88989383 -0.7974255 0.24176407 -0.5223398 0.34655717 -0.41872466 0.47853467 1.0775517 -0.2948789 0.2904487 -1.095894 -0.1828564 0.35070652 -0.32807195 0.29494196 -0.12722845 -0.55883646 0.9440673 0.2198534 -0.93255633 -0.60578746 -0.42814988 0.007867065 -0.4034171 1.1727066 0.03754574 0.37077045 -0.10387468 -0.8340072 -1.1238879 0.29955763 1.0274291 -0.5107013 -0.285562 -0.5787877 0.16009694 -0.40350387 -0.072247356 0.38735697 -1.3304682 -0.9108767 0.037222873 0.9191684 -1.62033 0.9598556 0.5477857 -0.23810542 0.35373583 0.200991 0.10421677 -0.8930033 0.32222572 0.2963083 0.03202044 0.7596661 0.41129425 1.3284067 0.47088447 -0.39921337 0.26481104 -0.017080635 -0.22290015 -0.07738623 0.17317224 0.16198939 -0.17364444 0.088976026 -0.73505485 0.43933597 0.049034536 -0.102160215 -0.5276403 1.4560761 -0.06000417 -0.5603512 0.7184999 0.65872693 0.49109828 0.49329382 -0.50773466 0.072206534 -0.12751049
pratiques -0.3664479 0.60916686 -0.72738975 0.45960113 0.2996515 -0.39320135 -1.1767083 0.7584086 -1.2922133 -0.7760754 0.072477505 -0.6967144 0.22414733 -0.2635329 0.09994231 -0.81736904 0.028745826 -1.5305752 0.26644376 -1.8136079 -0.33153805 0.3237511 -0.06588294 -0.8970348 -0.39676854 0.84080034 -1.0090748 -0.35475975 0.7101152 -0.42372558 0.7519262 0.09208112 0.6943604 -0.27718437 -0.41999078 0.6547274 -0.14247695 -0.72202086 -0.22028904 -1.0559777 -0.19108325 0.21813145 -0.6490129 -1.0463619 0.60456383 -0.6690466 -0.48062953 -0.27419552 0.06900698 0.027126295 0.02449508 0.38280213 0.272215 1.3091071 0.73894835 0.3358671 -0.7895362 -0.7449806 0.11370213 0.7703101 -0.008631867 -0.19553904 0.54179454 -0.230757 -0.51089436 0.45415434 0.578356 -0.18653281 0.5354772 0.66045237 -0.5330316 0.32287177 -0.6916137 -0.45250914 -0.28908223 1.4309449 -0.2647079 -0.61648524 0.71517026 -0.41049224 0.2083595 0.24151391 -1.1856014 1.3786327 -0.14412947 -0.7831494 -0.13705488 0.6904034 0.14556572 0.48745316 0.37831634 -0.44993144 0.012395392 -0.4994282 0.6646736 0.018798098 0.16422792 -0.01808907 0.6796627 -0.68547463
environnement -0.29250607 0.21480517 -1.0826448 0.34622562 -0.39189252 -0.4674906 0.6427518 0.4088129 -0.21255189 0.22170044 0.5528865 -0.2679102 -0.37206507 -0.87133867 0.6907618 -0.005846958 0.34368604 -0.062356982 -0.94638145 -0.49260953 0.749904 0.4338184 -0.8134832 0.08852891 -0.39705628 1.0293345 -0.7082578 -1.3538114 0.44223687 0.297057 0.26385483 0.35115114 -0.15442058 -0.050039098 0.0030157603 0.9920764 -0.06918492 -0.4828672 -0.5877521 -0.8501952 0.8450837 -0.69085836 -0.0021146627 0.5120747 0.518867 -0.61373204 -0.50902677 -0.15884052 0.6018573 -0.2933511 0.36171353 -0.49238765 1.1302613 1.2935555 -0.33905536 0.66269636 0.48562738 0.79173076 -0.47762114 -0.8404417 0.11455786 -0.17430675 0.3962528 -0.7809038 0.9357141 1.5527254 0.0506043 0.7062444 -0.89161414 0.9430252 -0.8121257 0.20138697 0.6797279 0.21255168 -0.040750496 -0.3964821 0.38419685 0.80254126 0.011920428 0.24975145 -0.5277215 -0.8196377 -0.24923332 -0.35440677 -1.0274866 -0.05453634 0.042917635 0.31240973 0.40911582 0.9193917 0.85711944 1.032508 -0.39876777 0.9260389 0.56449103 -0.10293864 -0.47904745 -0.54044634 0.6512323 -0.4934724
production -1.1107453 0.028159305 0.31721708 -0.528173 0.21164912 0.005699545 0.6016261 -0.24167182 -1.2400924 0.35411635 -0.58595115 0.4083299 0.30269438 -0.9542572 0.105769314 -0.15073049 0.26479262 0.03972669 -0.026329964 -0.5648788 0.5978584 0.9235638 -0.8397103 -0.14498447 -0.38092965 0.18204302 -0.30849674 -0.12688726 -0.50573426 -1.532627 0.57429826 -0.3864864 0.9517572 -0.26780194 -0.55769914 1.1318083 -0.1306967 -0.038585972 -0.013632466 -0.9000805 0.082414456 0.6763246 0.0655507 -0.28219184 1.4316729 -0.37730893 0.68549025 -0.06655292 -0.67212445 0.4275033 0.35420933 -0.3497957 0.19068012 0.03209394 0.12518676 -0.20625219 -0.17455964 -0.34594703 -1.2621511 -0.5065826 -0.07018813 0.70109445 0.4353314 1.0581851 -0.27969834 1.1013613 0.061047345 0.8013221 -0.6908598 -0.08588188 -0.22886302 0.4838864 0.8638954 -0.51617426 0.011637036 0.48790705 -0.87285084 -0.30592218 -1.4568874 -0.57273465 -0.25751323 -0.104407825 -0.7554582 0.8095536 -0.52634156 -0.051207993 0.8820458 0.47273847 0.044826593 1.8161697 0.10980094 0.23188111 -0.3290882 0.17925093 0.30243343 -0.5083614 -0.24472687 -0.92485356 0.7852909 -0.43374196
back 0.09101904 -0.040420797 0.8788921 0.06826815 -0.35702443 -1.0333141 0.40902907 0.8839975 -0.5945496 0.42603955 -0.8424991 -0.9647044 0.20167287 -0.33048606 0.1530406 0.8230689 -0.32652926 -0.6279372 -0.06792086 -0.3520906 0.11326704 1.4830241 0.3131628 -0.83741605 -0.611444 0.8560426 0.105064295 0.86436623 -0.92014354 0.48831165 0.12309706 -0.27769756 0.6753205 -0.31319365 -0.5780151 -0.34652358 0.50959826 0.047162525 0.42252314 -0.47377545 0.088240564 -0.2726377 0.39268485 -1.2425803 1.0587487 0.4373219 -0.337239 0.44235393 -0.15607034 -0.14054434 -0.79499865 -0.10548944 -0.0979844 -0.32488656 -0.23630124 0.047736954 0.4822557 0.5780313 -0.6828979 0.464487 0.15349472 0.46820638 -0.68474066 0.09758054 -0.564477 1.1314349 0.27962673 1.1659217 -0.5675525 0.945998 -0.035029925 0.5623015 1.5273058 0.44621328 0.51981056 0.5133603 -0.22287598 -0.22697182 0.20820059 -0.7608619 -0.10047921 0.6544166 0.00764614 0.36914372 0.35767227 0.2541196 0.6736322 0.0954629 1.339978 -0.06748546 -0.07590559 0.9322063 0.490691 0.459919 -0.5555993 0.8723201 -0.7816972 -0.5591821 -0.71270597 0.15373258
ainsi 0.34385756 1.3198696 0.56810707 0.20751658 -0.92838246 -1.0041786 -0.15644667 0.8360897 -0.62997115 0.2826461 -0.14493698 0.6094495 -0.48312035 -0.9207067 0.372239 -0.9357208 -0.98436594 0.027853126 0.84968466 -1.309441 -0.067354515 1.1900398 -0.9429644 -1.0765078 -0.7269207 0.38533098 -1.0476104 -0.39044932 -1.1578807 -0.40296033 -0.061880782 0.90573466 0.7595865 -0.3377801 -0.41298506 0.182774 -0.38609242 -0.44154182 -0.23922038 -0.5552688 0.89440197 -0.9828664 -0.14281529 0.34550297 0.6446632 1.406071 -1.0760118 0.50788337 -0.65114766 0.3186045 0.74973786 0.33421806 0.21605353 0.38249078 0.4250435 -0.018500544 -0.03554361 -0.59272885 -0.014230599 -0.5098772 0.4173302 0.33442476 0.22469944 0.6228862 -0.71075416 0.09587769 -0.24166216 -0.3887294 -1.3920295 0.88791347 -0.15593061 -1.1902168 0.26960054 0.3587343 0.7534337 0.11382466 0.4521156 0.38679945 -0.48096475 -0.6277567 -0.4412033 0.0991472 -0.49385813 -0.53006303 -0.5225122 -0.15705349 0.61192477 -0.06970084 0.28428772 -0.70209885 0.21572381 -0.10073559 -1.1428726 0.31108472 0.5928385 0.67639655 -0.5607061 -0.20757526 -0.01819874 -0.14206642
travail -0.5453572 0.51701283 0.076373175 -0.6864529 -0.85078365 -0.140085 -0.4078593 0.83033204 -0.09897121 0.37418133 -0.64166534 -0.34831968 -1.0554084 -0.8685179 0.2971378 0.10618718 0.062643796 -1.3843994 0.06261443 -1.0024762 0.22305639 0.3706595 -0.12199894 0.40575263 0.099391244 0.45370796 0.121322215 -0.3559968 -0.09350206 0.4376809 0.6367128 -0.027212583 -0.05345392 -0.027087906 -0.83666027 1.0287111 0.38637364 -0.24992539 -0.3825394 -1.1250042 -0.7769296 -0.42366678 -0.4396194 1.1877489 0.9885603 0.062874034 1.2716233 -0.22496879 0.840414 -0.46980548 -0.43315575 0.79696244 0.40207022 1.2423962 -1.1346272 -0.21052437 -0.09758517 0.13376524 0.15224099 0.46721044 1.0322714 -0.7674161 -1.0094903 0.68899983 0.04302776 0.9548503 -0.13372324 1.1886579 0.46400177 0.8873483 -0.64985764 -0.44170752 -0.7064598 0.5509986 -0.09056515 0.32676548 0.35422054 -0.021702468 -0.21515243 0.6662254 0.065960914 0.7744019 -0.31722805 1.3760717 0.16972652 0.33913508 -0.16640475 0.4323957 -0.7792132 0.40054575 0.90342903 -1.0056376 -0.9195719 -0.34056476 -0.08418325 -0.41784987 0.86873704 -0.2599819 1.6948975 -0.15719123
services -0.060321026 -0.04736378 0.35696653 0.06522404 0.11218464 -0.537726 1.6603507 0.5655131 -0.3225638 -0.39561296 -0.54457647 -0.3672521 -0.5061135 0.94737655 -1.0481423 -1.3488308 -0.89094305 0.25661623 0.4612827 -0.9619282 1.7869793 0.68987966 0.39696336 1.2173262 0.51855916 -0.39982626 -0.4439941 -0.39252988 -0.63576436 0.17134233 -0.27927107 0.2266684 0.5951221 -0.48955116 0.7019198 0.48890692 0.487785 -1.8180635 -0.088287145 -1.1915866 0.2519329 -0.13869797 -0.6319242 -0.21117528 0.17815238 0.6212374 -0.45730555 0.58012956 1.1745477 -0.33995333 -0.14642018 0.42981395 -0.01274476 0.43576524 0.17823187 0.06511281 0.31917253 0.52603424 0.09865127 -0.75607836 0.07226021 0.97651684 -0.3496904 0.39237893 -0.18636301 0.02753372 0.9060556 -0.24671547 -0.10240951 -0.1021055 -1.2445778 -0.40553027 -0.32134455 -0.14945258 0.98485583 -0.60775477 -0.6662992 0.18182147 -0.65399325 -1.0683979 -0.45663258 0.09161299 -0.5825273 -0.64126956 0.55627525 -0.0997534 -0.0651461 0.39395115 0.95708174 0.49726647 0.45061895 0.98948115 -0.015681703 0.76924795 -0.1725992 1.1036202 -0.8886676 -0.66953295 0.14552882 0.26476467
support -0.6001424 -0.13055634 -0.056799322 -0.37527287 -0.11134544 -1.1682174 0.5247013 0.2534513 -1.6573273 -0.029817177 -0.09952082 0.7265313 -0.10362801 -0.18778014 0.11438526 0.53334206 0.20428276 -0.8282108 0.08237536 -0.73240143 1.1062384 0.40330794 0.029473921 0.09505057 -0.05716048 -0.62126964 0.3890405 -0.79598755 0.25738 0.6140102 0.7386419 -0.049048945 0.21697006 -0.5090744 -0.5997252 0.91696155 0.18766138 0.7574879 -0.58485675 -1.5178438 1.3426548 -0.4096302 0.12765281 0.4751404 0.26572058 0.33159435 -0.15634675 0.031199744 -0.17383046 -0.6254809 0.20004478 -0.28438455 -0.068182506 -0.13039517 -0.08146284 -0.3874522 -0.839222 -0.33565474 -0.46596837 -0.15074165 0.721655 0.1327184 -0.018706208 -0.030846214 0.57467777 1.1999146 -0.35730678 -0.59824145 -0.11229403 -0.0030392199 -0.89338326 0.32616335 0.5223984 0.5874544 1.4803497 -0.2778754 -0.4850246 -0.14518398 -0.12273803 -0.42171147 -0.5106847 -0.50898576 0.14509594 0.51480067 0.13397796 0.8286022 0.19015239 0.39051408 0.022939377 -0.08976447 0.9998448 -0.1435275 -0.4276383 0.2205147 2.115143 -0.69172704 0.8063564 -0.31091502 -1.0335459 -1.3909189
technologies -0.23639765 0.045006987 0.3519586 -0.39009166 0.55786955 -1.1237448 -0.6161317 0.80182904 -0.26981053 -0.08192429 0.026125485 -1.0645603 -0.3623408 0.36191997 -0.6216215 0.13242622 -0.37962377 -0.5561951 -0.3864802 0.37869322 0.013663788 0.14169952 -0.017703466 0.39047557 0.2859764 1.2193305 -0.33316377 1.1157999 -0.73890996 -0.5019576 0.6897347 -0.009000156 0.39525172 -0.43809056 -1.6754143 0.67697096 0.6643526 0.40269542 -0.12323868 -0.60611755 0.1374082 -0.5785851 -0.05333923 -0.6359257 1.1444799 -1.4697387 -0.20462437 -0.5272005 0.8966989 -0.3475415 0.1309704 -0.9303397 -1.0379816 0.102800846 -0.50920737 -0.1727061 -0.24247941 -0.06458415 -0.16318372 -0.0022388867 -0.51723176 -0.87307155 0.29014567 -0.8401553 -0.06998061 0.51508975 -0.0050232615 0.30454245 -0.11403637 0.80169576 -0.85007125 0.33293107 0.4767887 0.57907265 1.0755254 0.5301636 0.43035012 -0.52684224 -0.06259832 -0.6579897 0.5471803 -1.0507854 -0.02758497 1.0504322 -0.95601964 0.18040106 -0.40538305 0.75366795 0.7919857 0.20375971 -0.14431241 0.11027115 0.40708736 -0.20338671 1.3690754 0.06266421 -0.2887906 0.71385 -0.5914673 -0.44619095
recherchons -0.70320266 0.15717086 0.17826809 0.09694066 0.68622476 -1.0118734 0.4821851 1.3004087 -0.7423498 -0.21782042 0.25817654 -0.29254317 0.21655326 -0.122826874 1.2730242 0.7555896 1.2053852 0.12260789 -0.06719214 -0.839396 0.76185715 0.3899001 -0.6049929 -0.6252929 0.4857913 0.51033914 -0.48301196 0.1983515 -0.37269604 0.6337249 -0.06090266 0.33553883 0.1823783 -0.48590192 -0.4816881 0.98145646 0.2968158 0.43400756 -0.49676976 -1.695571 -0.40611675 -1.4377086 -0.3082346 -0.45455977 0.34611848 -0.24154428 0.72729087 -0.2937934 0.04941466 0.30156872 -1.0167729 0.059850797 -0.7933719 -0.16886666 -0.43805394 0.04506917 -0.09825015 0.8229814 -0.39073038 0.670538 0.28522885 -0.44571945 -0.41133338 -0.037084293 -0.45651242 0.75716776 0.58293414 -0.6396202 -0.18002757 0.601185 -0.064301 0.08579562 0.76491505 0.7846239 0.3812056 -0.56515104 0.23206249 -1.0055628 0.24971068 -0.18099828 -0.21660364 -0.55629545 0.21025217 0.88748103 -0.013892509 0.82295114 0.029782435 0.056226954 0.9969512 -0.58088803 0.035869014 -0.3599976 0.30057186 0.10851703 -0.53570926 -0.8017945 -0.018106068 -0.81561816 -0.63152176 -0.48384228
faire -0.8814701 0.48873705 -0.086958654 -0.23391162 0.61652523 -1.046927 -0.79935426 0.95180774 0.6329868 0.047636364 -0.81605834 -1.2502394 -0.51197547 0.01934449 0.5103901 -0.54828286 -0.74721295 -0.23585607 -1.1481364 -0.95384 -0.43953058 0.36019936 0.93121827 -0.21737185 -0.50819576 0.5731062 -0.3829265 0.3916045 -0.00670635 -0.046143204 1.4646045 -0.8324943 0.042774174 -0.35010004 0.31059805 0.38524154 -0.42080352 0.027453754 -1.0124093 -0.66414404 -0.4303772 0.21271674 0.23064214 -0.78688765 -0.9564781 -0.24268551 -0.30281395 0.060864285 0.8559114 0.42918748 -0.23574911 -0.35252306 0.61743194 -0.8277697 0.7327344 0.92253834 0.34868214 -0.704638 0.88987005 -0.12585154 0.67641836 0.27973813 0.72992843 -0.15261224 -0.20576574 0.5452126 -0.17400031 0.41563392 0.2094094 0.787763 -0.044254195 0.08237452 -0.1519117 0.33174884 -0.39506778 0.43315604 0.5089442 0.4922872 -1.16352 -0.6201391 -1.0208639 -0.82428664 -0.77678066 -0.07919952 0.17351201 -0.89787376 0.5735822 0.86958414 0.09260896 -0.8177981 0.4541668 -0.123452276 0.4252113 1.3492024 1.009821 -0.4665336 -0.11478293 -0.7537481 0.2136349 0.24339746
nouveaux -0.433919 -0.56579447 0.10836933 0.60045433 0.20781435 -0.5467308 0.91048783 1.1546308 -0.9627643 0.203658 -0.22792903 0.6796275 0.12955225 0.89161557 0.034560278 0.018440947 0.64581424 -0.41644916 0.36699232 -0.70761526 1.0675976 -0.7570218 -0.6841373 -0.055142704 -0.07784225 -0.7551073 -0.33853766 -1.4600855 -1.0635678 0.4275437 0.8554556 -0.2245393 -0.78860724 0.021554828 -0.82652426 -0.6818955 -0.20290168 0.10884663 -0.17093374 -0.8077952 -0.06351568 -0.56919116 0.082118295 0.44308624 0.20483513 -0.60522854 -0.5699907 -0.22340341 -0.65596646 0.9127281 -0.47108987 0.10689241 -1.0459878 0.5948319 0.2814042 -1.3507613 -0.31091267 0.18186773 -0.5109938 0.7288521 0.23247601 -0.20787391 0.39241186 0.38915262 0.16957454 -0.13765019 0.9859167 -0.45032346 0.04713544 1.2121487 0.4063657 -0.1098222 0.27120358 0.02373495 0.9001672 0.04924676 0.06592509 -1.3824998 -1.2093188 0.1835761 -0.17314517 0.24274084 -0.66211206 0.6491115 -0.22782978 0.41038847 -0.14356 0.31375313 0.5794673 0.07792143 0.6559496 1.0968277 0.7110913 0.40577582 0.81457865 1.0087945 -0.8664451 -0.48340455 -0.104062535 0.78222454
api 1.0062853 0.04614179 1.0945505 -0.22130626 0.96336114 -1.1126008 -0.14021285 -0.4557225 0.07886904 -0.2796235 -0.18258841 -1.0251017 -0.051848155 0.5423515 0.085208215 -0.23613761 -0.26133978 -0.37947112 -0.56415623 -0.6728118 -0.7364912 0.23007919 0.33638486 0.77353513 -0.14210139 0.10337 -0.38790253 0.8298577 -1.0750732 0.13113953 0.4239553 0.21841231 0.53988874 -0.9508785 -0.85661495 0.37669477 -0.15565093 -0.07384677 -0.14681715 -1.7177267 -0.23546404 0.1925104 -0.34994718 0.45765835 -0.45031774 0.8035854 0.26299345 0.12599494 1.8409078 -0.46531987 0.85119295 -0.7088082 0.6961029 -0.16660374 -0.14634298 0.21096072 -0.65925187 -0.14931369 0.2833031 -0.09192692 0.20642449 -0.7145256 -0.7794849 0.54860294 0.09336044 0.09082207 1.3086606 0.32434002 0.18840855 0.8069214 -0.41578472 0.6711171 0.8399423 -0.70770276 0.7287607 -0.11361389 -0.043358713 -0.68136495 -0.28055802 -0.12537564 -1.3917444 -0.1638745 -0.59218305 0.11345591 -0.56784534 -0.116439745 -0.39089835 0.59926987 1.1267643 0.2430977 0.29733014 0.5087377 -0.7293298 0.48391458 -0.23408881 0.09485115 0.33577868 -0.9017217 0.45806992 -0.9677398
documentation 0.21674675 0.19177201 -0.23748273 0.04469651 0.6252775 0.046618022 -0.80721116 0.69852144 0.221181 -0.27366132 -0.22146347 -0.80376333 0.45637012 0.36505195 -0.74986076 1.1559566 -0.69926816 -1.0006948 -0.43437588 -0.8779335 0.44559243 -0.26150197 0.19906482 -0.62254244 -0.57054013 0.6243068 -0.4838126 -0.40562543 0.29261628 -0.7717854 0.5378706 -0.15880524 1.0116668 -0.0076016914 -1.1850696 0.9708318 -0.19662778 -1.8565806 0.5153557 -1.0969428 0.4882644 -0.92779565 0.9936615 -0.9638102 0.79731506 0.3920431 0.3645575 0.2268513 -0.7370958 -0.34834903 1.2827826 -0.14832689 0.93535393 0.20419286 0.18733844 0.4038767 0.56401545 -0.98723304 -1.4918702 -0.720396 0.199857 0.5448578 0.22857143 -0.082300566 -0.4936982 0.3952594 0.13280413 0.0074154185 -0.60780644 0.01657881 -0.07710532 -0.12184843 0.19642408 0.0027152633 0.6126193 0.4752915 -0.18361323 -0.28488585 0.4013021 -0.16495603 -0.25271073 0.042502075 -0.720918 0.6514053 0.29867464 -0.18072563 0.86083245 -0.22963771 0.43595222 -0.48188362 0.38452742 0.48637643 -0.11361861 -0.6672549 0.62742376 0.7209701 0.27328974 -0.033893637 0.076696575 0.41591153
connaissance 0.4608165 1.0440692 0.3562366 0.03272482 -0.13103819 -0.66491723 0.57070047 0.11814056 -0.98445386 0.4209571 -1.1241724 -0.5744273 -0.28121898 0.7287394 0.063760765 0.2134652 -0.15468419 -0.49047595 0.52020764 -0.98192936 -0.59353817 0.36015803 0.8029779 0.08108189 -0.025396273 0.7473846 -0.6067857 0.04027512 -0.73237276 0.26917824 0.49124762 0.20926735 0.03345246 -0.97084266 0.08507468 -0.18358302 -1.3303627 -0.88809896 -0.4110701 -0.9517615 -0.19790624 -1.0573635 -0.17701681 0.022091653 0.5774021 0.87568974 -0.11487952 0.20990269 1.2158796 -0.22936414 0.81097865 -1.7292986 0.49030393 -0.80222076 0.17765372 0.0846309 0.65022504 0.45464444 0.8763216 0.3816059 0.48047394 -0.51223457 -0.35546356 -0.70064247 -1.1610023 0.21256828 0.277785 0.7471655 -0.6077004 1.2716604 -0.11785882 -0.20927265 -0.36758813 -1.0627288 0.5820037 0.20641828 0.9625973 0.47459683 0.14861627 0.5575295 -0.3183806 -0.6911388 -0.37363017 -0.030416023 0.26012725 -0.94341934 -0.099132665 -0.3185112 -0.43060595 0.46445614 -0.0711982 0.10619715 -0.071858235 0.89489377 0.8403985 0.15591371 -0.6101315 0.09630379 0.030475406 0.122231945
docker 0.0073658945 0.13043156 -0.25843218 0.07205957 0.41329584 -1.2289323 1.1590426 0.35520354 0.15977864 0.03441496 -0.6817906 -0.4859444 0.07055953 -0.27127278 0.32584026 -0.11698447 -0.6570783 -1.0380263 0.08250439 -0.35880038 0.2934615 0.8210338 0.49988264 0.20450772 -0.42907593 0.19865614 -1.1194108 -0.54098696 -0.10701373 -0.6496727 -0.52077824 0.37712207 1.0845183 -0.13437076 -0.3163483 0.7147101 0.2273288 -0.47376847 -0.30085945 -0.8238845 -0.34276506 -0.13994814 0.32816854 -0.055987407 0.2380583 -0.19610827 0.22938411 0.5900497 0.9568873 0.6260202 0.24055295 -0.8486944 1.089697 -0.444616 -0.87263757 -0.059482243 0.81488365 0.25427735 -0.049299974 -0.25861394 -0.03598811 -0.63668805 -1.1180369 -0.61143947 0.023148797 1.5737777 0.47919413 0.23338807 -0.68215156 -0.11620624 -0.20895831 0.94042426 0.94350505 -0.3206309 0.09718231 -0.6303251 -0.3147609 0.051869683 -1.1980935 0.26230574 -0.32958272 0.20588614 -0.096591756 0.65258235 -0.86079544 -0.2146128 -0.07915012 -0.32746646 0.849555 0.23311333 -0.12771757 0.6466301 -0.39224556 0.39424473 -0.04508028 0.78540444 0.83708423 0.69791436 0.64413995 -0.22097139
produits 0.24074672 0.3835085 -0.15400751 0.3013522 -0.5964991 0.27666757 -0.20468037 1.0283836 0.3107992 -0.006154761 -0.9416025 0.02945042 0.76081127 -0.12512061 0.8987363 0.010675403 -0.36220795 -0.6235418 0.26870078 -0.7045364 0.70535326 -0.2237776 -0.69023925 -0.03480073 0.71489805 0.13081902 -0.9239222 -0.4980503 0.03397414 0.9008829 0.4966602 -0.13791463 -0.26033002 -0.10095183 -0.7047421 0.25042713 -0.08278077 0.7316847 -1.5641859 -0.97308624 -1.1047823 0.4307252 -0.086935624 0.48148265 0.845196 0.40219018 -0.0411958 -0.32518086 0.98192525 0.11941884 -0.21022674 0.49323103 0.54170096 -0.273483 -0.09427986 -0.83375156 -0.22520718 -0.41814464 -1.3249233 1.3946127 -0.43787223 0.23402339 0.26519355 -0.5328023 -0.4464046 0.04442632 0.24341209 0.85302097 -0.7325902 0.9680385 -0.55403936 0.031347863 -0.10823427 -0.31402877 0.057358287 -0.05516643 0.29617935 -0.7006092 0.24574709 -0.44234946 0.08075546 -0.08368486 -1.218421 0.7769524 0.7706299 -0.25230646 1.3814603 0.730743 0.22134776 0.7968639 0.6189711 0.54288507 -0.78751713 0.15736023 -0.027999843 0.60662204 -1.1452805 -0.41020963 0.7032819 -0.39208254
git 0.23060517 0.6300541 -0.5164738 -0.34526464 -0.30116904 -1.6595056 0.49518564 0.4635142 0.07876707 0.97334003 -0.5574653 -1.2443541 -0.24690397 0.62246394 -0.112238295 -0.83498377 -0.40877303 -0.7049507 0.26157126 -0.60015815 0.46007156 1.0584141 -0.41108647 -0.38523987 -0.51395726 0.65635175 -0.25723577 -0.1828132 -0.17952295 -0.70829535 0.19339971 0.7268913 0.0008684394 -0.19777758 -0.3270621 0.36816147 -0.060627423 -0.7573642 0.47726783 -1.3298693 0.5876887 -0.0865644 -0.096501976 -0.59939265 0.18992126 -0.50164884 -0.46090546 0.13693951 1.295867 -0.17984754 0.48815233 -1.3896115 1.1077667 0.8149343 -0.27527562 0.09886555 -0.067384906 -0.6339531 0.095019355 -0.8269327 0.23661812 -0.7017517 -0.13050961 -0.3185973 0.07082352 0.79762536 0.56641144 0.34476244 0.60037607 0.28000566 -0.29821923 0.020636376 -0.06508534 -0.6402492 0.41823474 0.6608002 0.40778118 0.07013148 -0.11920522 -0.38885888 0.10712791 0.13985854 -0.7666088 -0.13338846 0.11168668 0.008494609 -0.40651563 0.076727584 0.32524958 0.74450946 0.10827745 0.23722766 -0.6221875 -0.5980733 0.5329308 0.35992742 0.1987954 0.41923174 0.5825377 0.2880777
spring 0.38323474 0.13929154 0.34698817 0.38158944 0.52989125 -0.3313373 0.15680064 0.24652481 -0.30019817 0.36859623 -0.70145804 -1.786135 0.3392613 0.10374898 0.5648002 -0.39319465 0.24989134 -0.23232989 -0.60221905 -0.39432782 -0.3670283 -0.11748129 -0.04997358 0.37938923 -0.33273655 0.10482364 -0.21766365 0.36113107 -1.0062362 0.60601354 -0.104605556 0.49890104 0.05527476 -0.20900491 -0.5032946 -0.58696353 0.56477326 -0.65363485 -0.10673791 -0.81263566 0.3779406 -1.0069956 -0.51721704 -0.90880936 1.4021143 -0.10601943 0.0784282 -0.4686582 0.9064093 -0.037417777 -0.39216194 -0.51285714 0.42851377 -0.042289954 -0.49977756 -0.25405616 0.120024316 -0.5569121 0.086770795 -0.4770527 0.04402896 -0.4494072 -0.21250671 -0.051676184 -0.305333 1.2628137 1.1619339 0.9531486 -0.7993736 1.6332895 0.0654994 0.16067268 0.7742271 -0.41555446 0.008695235 0.3006407 0.56293565 0.04611928 0.62847793 -0.8612351 -0.678161 -1.2971298 -0.5393984 0.5365443 0.14206971 -0.20418338 -0.07277283 -0.23019475 1.1209573 0.23731525 0.87777287 0.28596044 0.22646774 0.7071992 0.4454963 0.3370866 0.17113426 -0.14730643 0.2621305 -0.23049285
continue 1.0113294 1.0301459 0.056120764 -0.021432886 0.85012823 -0.5692019 0.8736101 0.79252243 -0.86960596 -0.041041594 -0.91409224 -0.76989424 0.15883479 -0.5639634 -0.6113778 -0.32641956 -1.2429135 -0.98202276 -0.6344242 -0.5861696 0.031865094 0.008738105 -0.20466915 -0.3848709 -0.5337457 0.40025273 -0.14077616 -0.22804938 -0.3092013 -1.0919253 0.1274997 0.339387 1.4336084 0.49238434 -0.19305848 -0.068654984 0.10072436 -0.75326926 -0.48879942 -0.7617585 0.5884377 0.12675224 -0.077649295 -0.043582246 -0.006393034 -1.553343 -0.68272483 -0.50373644 0.13576092 0.79302716 0.12634693 -0.6240832 1.1618686 0.09755704 0.065783136 0.04633377 -0.24854997 -0.0012839527 -0.19678387 0.3968635 0.031196767 0.13288288 0.1689698 -1.0082898 0.12859467 0.736893 0.108326346 -0.3250434 -0.9426043 0.15716997 -0.7384555 0.4282628 0.24436884 0.08505955 0.85015947 -0.42383438 0.105518594 0.13664202 -0.14364254 0.5914201 0.2891478 0.36162165 -0.24891177 0.08919264 -0.082445785 -0.018702893 0.6793564 0.8416661 1.1906108 -0.7699063 0.88845694 1.213394 -0.62915546 -0.41177604 0.22956327 -0.2508201 0.14239421 0.213749 0.031203873 -0.7570288
maintenir -0.11778341 0.019905878 -0.48570165 -0.3526198 0.7278057 -0.79787856 -1.0549724 1.03534 0.26064157 -0.20791149 0.1701892 -0.7144641 -0.8144649 0.3589376 0.018835785 0.086392045 -0.5370616 -0.54904383 -0.18011095 -0.23349524 0.12712722 0.2758895 0.40432757 -0.5714879 -0.6904709 0.92987037 -0.71041095 0.17062841 0.24609393 -0.98057014 -0.48449424 -0.2179953 0.16161804 0.10982008 -1.425896 1.1341498 0.30431402 -0.4951354 -0.27673677 -0.47839835 -0.085753664 -0.22997685 -0.0631477 1.03317 0.5140004 0.8889498 -0.013068788 -0.29194817 0.19068281 -0.20554225 0.706783 -0.24237123 0.5194545 0.24855138 0.28740016 0.2202158 0.20368955 0.18642965 -0.6260041 -0.13721064 -0.3226883 -0.45443338 0.19882733 0.90324485 -0.18596867 -0.06127944 -0.43600556 0.31765598 0.14229208 0.390208 -0.025204156 0.2913543 0.1669212 0.50662345 0.11250453 0.26370844 0.5031552 -0.9128886 -0.4857465 -0.6874978 -0.9232508 0.41066024 -1.0699598 1.199931 0.30474928 -0.84014946 0.093400486 0.38398105 0.713654 -0.1508468 0.2801321 0.6826307 0.5641954 0.7998951 1.217438 1.130725 -0.15180036 -2.1100643 0.70584863 0.025471574
mobile -0.61506224 -0.37067005 0.36920437 -1.0067888 -0.60582626 0.76265013 -0.12139621 1.1770284 -0.1307343 -0.2451516 -0.019920047 -0.5034428 -0.10030615 0.4265126 0.39256883 -0.2623508 0.5265816 -0.34100273 -0.46883214 -0.514762 0.32428 0.46353763 -0.4112745 -0.49701887 0.13451198 1.2868844 -0.18410893 -0.126886 -0.81132346 0.93839157 0.24410808 0.63682145 0.22956268 0.53399897 -0.31829715 0.9054328 -0.11948223 -0.6498323 0.29284084 -1.1472795 -0.516913 -1.2497594 -0.19007382 0.031339366 0.24533385 -1.0214763 -0.12989716 0.35729966 -0.38165534 0.27969983 -0.44735518 -1.0931438 0.056780256 -0.36151496 0.27895814 1.6273942 0.016981447 0.3391935 -0.7476449 0.21450594 1.2498713 -0.44129345 0.08293386 -0.7864488 0.2027041 -0.031193677 -1.1141564 0.4670579 -0.41551685 0.72659165 -0.148698 1.3590257 0.5150131 -0.37771213 -0.24101254 -0.17987561 0.7577323 0.03559137 -0.16270882 0.2541082 0.8066625 -0.324653 -0.06276853 0.5594735 -0.214569 0.9557566 0.34412935 0.42207944 1.1624095 -0.12773839 -0.21292242 -0.21765648 -0.11940967 -0.40434018 0.60835123 0.64052033 -0.5911948 -0.06972623 -0.81495875 0.39111185
maintenance -0.06999396 0.114082836 0.790234 -0.7870964 -0.03982788 -0.75499606 0.26418665 0.52413076 -0.15258892 -0.15752222 -0.53198105 -0.31428027 -0.40589774 -0.5209762 -0.04001571 0.2979016 0.67579013 -0.854547 -0.22791037 -0.63184834 0.02262719 0.080439515 0.47324905 -0.5460545 -0.17226233 0.54573184 -0.11276351 -0.5121218 -0.7623665 1.1827801 1.2248416 -0.54088575 1.2534164 -0.6027315 0.11595837 0.2961969 -1.3388035 -0.5168172 -0.8321284 -1.0095992 0.12317848 0.44404447 0.52228886 -0.5807023 0.68738717 0.7482867 -0.05830797 0.72662073 0.13584405 0.3409739 0.009930458 -0.85826844 0.36655894 -0.059851013 0.78291935 -0.5516161 -0.42706862 -0.32996553 -0.60239697 -0.80262554 0.7380634 0.6096345 -0.60146874 0.4848294 -0.47181875 0.7353613 -0.11429858 0.43730476 -0.79451555 -0.15446644 0.66802996 0.85545415 0.9865766 0.43060464 0.16270028 0.17122184 -0.1867141 0.35393673 -0.97246116 -0.1798098 -0.68919533 -0.098225854 -0.11091034 -0.20074669 0.43139273 0.4926298 1.143718 0.5523386 -0.7924738 -0.4028408 0.26994383 0.4084657 -1.0569719 -0.13698201 -0.12560332 0.26122874 -0.15866548 -0.70646435 -0.02838949 -0.18283206
